{
  "input_sequences": [
    {
      "name": "tracks_loose202102NoIpCuts_absD0DescendingSort",
      "variables": [
        {
          "name": "z0RelativeToBeamspot",
          "offset": 0.0,
          "scale": 1.0
        },
        {
          "name": "log_pt",
          "offset": 0.0,
          "scale": 1.0
        },
        {
          "name": "d0",
          "offset": 0.0,
          "scale": 1.0
        },
        {
          "name": "deta",
          "offset": 0.0,
          "scale": 1.0
        },
        {
          "name": "dphi",
          "offset": 0.0,
          "scale": 1.0
        },
        {
          "name": "chiSquared",
          "offset": 0.0,
          "scale": 1.0
        },
        {
          "name": "numberDoF",
          "offset": 0.0,
          "scale": 1.0
        },
        {
          "name": "qOverP",
          "offset": 0.0,
          "scale": 1.0
        }
      ]
    }
  ],
  "inputs": [
    {
      "name": "btagging",
      "variables": [
        {
          "name": "eta",
          "offset": 0.0,
          "scale": 1.0
        },
        {
          "name": "log_pt",
          "offset": 0.0,
          "scale": 1.0
        }
      ]
    }
  ],
  "layers": [
    {
      "activation": "rectified",
      "architecture": "dense",
      "bias": [
        -2.8235960006713867,
        0.9118974804878235,
        -0.7663449645042419,
        -1.0609084367752075,
        0.3546375036239624,
        -1.1303589344024658,
        0.606826901435852,
        1.8227932453155518,
        4.607233047485352,
        0.9384552836418152,
        1.2775847911834717,
        4.218275547027588,
        1.0772705078125,
        4.282060146331787,
        -4.633852005004883,
        1.7321454286575317
      ],
      "weights": [
        0.16654734313488007,
        1.4702210426330566,
        -0.2183072715997696,
        -0.9922538995742798,
        -1.006797432899475,
        -0.022305067628622055,
        0.048004399985075,
        1.1507654190063477,
        -0.12856705486774445,
        -0.9683018922805786,
        0.012621259316802025,
        0.834702730178833,
        0.5669775009155273,
        0.0015902298036962748,
        -0.0682353749871254,
        2.8461461067199707,
        0.01950986124575138,
        1.256978154182434,
        -4.558091163635254,
        0.4789888262748718,
        5.807045936584473,
        0.02607078291475773,
        -1.9150009155273438,
        -7.314822673797607,
        -0.010235392488539219,
        -0.604459822177887,
        0.9493831396102905,
        0.852147102355957,
        -1.011227011680603,
        0.03283761814236641,
        -1.450520634651184,
        1.0925036668777466,
        0.009328784421086311,
        -0.7068145275115967,
        -0.12647221982479095,
        0.36906978487968445,
        -1.0300594568252563,
        -0.11450156569480896,
        0.050443876534700394,
        -0.10070880502462387,
        0.019367344677448273,
        -0.6823945045471191,
        0.8246942758560181,
        0.32245463132858276,
        0.46290019154548645,
        -0.03003738634288311,
        -0.24977967143058777,
        -0.7379699349403381,
        -0.019747519865632057,
        -1.010520100593567,
        0.18155929446220398,
        -0.944352924823761,
        1.619100570678711,
        -0.06928642839193344,
        0.05732572078704834,
        0.28938326239585876,
        -0.18539178371429443,
        -0.41851603984832764,
        5.475764751434326,
        5.893982887268066,
        -2.2294843196868896,
        0.23035237193107605,
        -3.109313726425171,
        3.5625295639038086,
        -0.012518330477178097,
        -0.6971555948257446,
        -2.1834564208984375,
        -4.391334533691406,
        -19.99135971069336,
        -0.04479829594492912,
        0.07884279638528824,
        -2.018907308578491,
        -0.19673167169094086,
        -0.5591710805892944,
        -6.037138938903809,
        -4.802037239074707,
        0.36997881531715393,
        0.1388528198003769,
        -2.4926059246063232,
        -1.1828749179840088,
        0.19556841254234314,
        -1.8489954471588135,
        7.471362590789795,
        8.098519325256348,
        -6.4334917068481445,
        0.1698525846004486,
        -1.516543984413147,
        0.8276468515396118,
        -0.021005509421229362,
        -0.5751091241836548,
        0.944320023059845,
        -15.71273136138916,
        12.265959739685059,
        -0.05367512255907059,
        0.016263805329799652,
        3.003549575805664,
        -0.015706224367022514,
        1.3812570571899414,
        4.058368682861328,
        -4.152861595153809,
        -5.770400047302246,
        0.07018747925758362,
        -2.0762217044830322,
        9.739358901977539,
        -0.019300593063235283,
        -0.6695355176925659,
        0.31900376081466675,
        17.553476333618164,
        6.462758541107178,
        -0.024933183565735817,
        0.017081158235669136,
        4.4530930519104,
        -0.19466929137706757,
        2.5648670196533203,
        -0.3053553104400635,
        -2.4966530799865723,
        -1.7752269506454468,
        -0.03861967846751213,
        0.08251795172691345,
        -2.1526293754577637,
        0.2804839313030243,
        -0.9087001085281372,
        -6.3709940910339355,
        3.9593963623046875,
        8.534276962280273,
        0.13402104377746582,
        -2.7831850051879883,
        -1.7630060911178589
      ]
    },
    {
      "activation": "rectified",
      "architecture": "dense",
      "bias": [
        -0.03782341629266739,
        0.0,
        0.0,
        -0.17836126685142517,
        -0.30091726779937744,
        0.0,
        -0.06617216020822525,
        -0.10532735288143158,
        0.0,
        -0.12649399042129517,
        -0.19595137238502502,
        0.0,
        -0.23427075147628784,
        -0.08789194375276566,
        -0.06234549731016159,
        -0.1649467647075653,
        0.0,
        -0.29898932576179504,
        0.0,
        0.0,
        0.0,
        -0.1473023146390915,
        -0.061874404549598694,
        0.0,
        -0.2890281081199646,
        -0.15600614249706268,
        -0.20526643097400665,
        0.0,
        0.0,
        0.0,
        0.0,
        0.0
      ],
      "weights": [
        -0.18069200217723846,
        -0.04180321842432022,
        0.2778744399547577,
        -0.3685133755207062,
        -0.4129694700241089,
        -0.2000754028558731,
        -0.23676569759845734,
        -0.042284045368433,
        -0.3043818175792694,
        0.1276484578847885,
        0.2224215567111969,
        -0.34533312916755676,
        0.025548160076141357,
        -0.017043333500623703,
        -0.2025129646062851,
        -0.04195096716284752,
        -0.10612320899963379,
        -0.1828070431947708,
        0.1600777506828308,
        -0.028445733711123466,
        0.38689035177230835,
        -0.0631302073597908,
        0.11314806342124939,
        -0.35998791456222534,
        0.011584204621613026,
        0.11870287358760834,
        -0.07997308671474457,
        -0.014244661666452885,
        -0.061319123953580856,
        -0.020796772092580795,
        0.07263021171092987,
        -0.0017631971277296543,
        0.3252379596233368,
        -0.20007921755313873,
        0.042587876319885254,
        0.10277733206748962,
        0.1575365960597992,
        -0.34249651432037354,
        0.009463012218475342,
        -0.2348446100950241,
        0.10904434323310852,
        -0.05137452483177185,
        -0.16414573788642883,
        -0.02664829231798649,
        0.08990589529275894,
        -0.020352361723780632,
        0.3099426329135895,
        -0.34779584407806396,
        0.09509319067001343,
        0.040650375187397,
        0.4770330488681793,
        -0.03948453068733215,
        0.1290266215801239,
        0.11232861131429672,
        -0.40126684308052063,
        -0.27439895272254944,
        0.3528846800327301,
        -0.36769792437553406,
        -0.02951231598854065,
        -0.3185383379459381,
        -0.09560364484786987,
        -0.3874579668045044,
        -0.10945451259613037,
        -0.2732905149459839
      ]
    },
    {
      "activation": "rectified",
      "architecture": "dense",
      "bias": [
        -0.905048668384552,
        -1.860501766204834,
        -2.091954231262207,
        -2.0673935413360596,
        -0.4470210373401642,
        -0.7922026515007019,
        -3.5524113178253174,
        -1.9380419254302979,
        -1.2102601528167725,
        -1.8302892446517944,
        5.2770676612854,
        0.17619888484477997,
        -1.8718199729919434,
        -0.22592410445213318,
        2.2763218879699707,
        -1.5351451635360718
      ],
      "weights": [
        -0.3571544885635376,
        0.1557123363018036,
        -0.023753482848405838,
        -0.2934878170490265,
        0.09416169673204422,
        -0.9227119088172913,
        0.19107210636138916,
        -0.4080549478530884,
        -0.10697496682405472,
        -0.533787727355957,
        -0.8604568839073181,
        -0.059199292212724686,
        -0.06607642769813538,
        -0.061122167855501175,
        0.2560490071773529,
        -0.5661428570747375,
        -0.5851392149925232,
        1.0771065950393677,
        2.35253643989563,
        0.7534250617027283,
        -0.13203196227550507,
        0.0693829208612442,
        -0.49024415016174316,
        2.3480043411254883,
        2.7846767902374268,
        2.2896695137023926,
        1.4122364521026611,
        4.277657508850098,
        1.7406055927276611,
        3.442178964614868,
        -1.0126521587371826,
        1.423473834991455,
        -0.5183435082435608,
        0.9462709426879883,
        1.7373530864715576,
        0.811436653137207,
        -0.22327612340450287,
        -0.011827939189970493,
        -0.2965549826622009,
        2.4522392749786377,
        3.3179426193237305,
        2.431999683380127,
        1.0557541847229004,
        2.6812760829925537,
        2.0596072673797607,
        3.5937299728393555,
        -1.0648045539855957,
        2.3955910205841064,
        -0.7573959827423096,
        1.1897857189178467,
        2.42767333984375,
        0.31600189208984375,
        0.028570689260959625,
        -0.06649140268564224,
        -0.3034183979034424,
        3.3054299354553223,
        3.974212169647217,
        2.61574649810791,
        1.3130789995193481,
        3.3610641956329346,
        2.561884641647339,
        4.639249324798584,
        -1.2242320775985718,
        2.990363836288452,
        -0.12169342488050461,
        -0.25625941157341003,
        -0.5338751077651978,
        0.0797605961561203,
        -0.3016951382160187,
        -0.24106548726558685,
        -0.05919112265110016,
        -0.9595052003860474,
        -0.6440390944480896,
        0.19909457862377167,
        -0.044498998671770096,
        -0.40823420882225037,
        -0.2913949191570282,
        0.09357612580060959,
        -0.1789248287677765,
        -0.009538264013826847,
        -0.7248471975326538,
        1.4662846326828003,
        1.8801920413970947,
        0.5317720770835876,
        -0.04229911044239998,
        -0.0390094518661499,
        -0.38195136189460754,
        2.1957926750183105,
        1.592522382736206,
        1.8896222114562988,
        1.1464382410049438,
        3.910144329071045,
        2.2385122776031494,
        3.8865087032318115,
        -1.1133596897125244,
        2.7678487300872803,
        0.1701347976922989,
        -0.919070839881897,
        -0.4592421054840088,
        -0.16807930171489716,
        -0.11855610460042953,
        0.12376909703016281,
        -0.3756338655948639,
        -1.0774785280227661,
        -0.17892099916934967,
        -2.723548412322998,
        -0.9769704341888428,
        -0.23111136257648468,
        -0.28398633003234863,
        -0.1461731493473053,
        0.12831856310367584,
        -2.036868095397949,
        0.0014468106674030423,
        -0.357197105884552,
        -0.295525461435318,
        -0.5361952185630798,
        -0.019954107701778412,
        -0.2128266543149948,
        0.06973833590745926,
        0.04703003168106079,
        -0.31399551033973694,
        -1.3509442806243896,
        -0.5911065936088562,
        -0.38693323731422424,
        -0.16582253575325012,
        -0.3354324996471405,
        0.03986836597323418,
        -0.9406949877738953,
        0.5362226366996765,
        -1.042057752609253,
        -0.06181114912033081,
        -0.10357934981584549,
        0.36383694410324097,
        -0.07499448955059052,
        0.10064387321472168,
        -0.013699352741241455,
        -0.0698598176240921,
        -0.5304445028305054,
        -0.5645402073860168,
        -0.028928520157933235,
        -0.04957503080368042,
        -0.08739359676837921,
        -0.2376512587070465,
        -0.49690911173820496,
        -1.8491954803466797,
        0.057113125920295715,
        -0.7034582495689392,
        -0.04771968722343445,
        -0.41583356261253357,
        -0.330914705991745,
        -0.12254542112350464,
        -0.3035942614078522,
        -0.516301691532135,
        0.06589309871196747,
        -1.3522710800170898,
        -0.9581589102745056,
        -0.16890351474285126,
        -0.8822944760322571,
        -0.07251222431659698,
        -0.14070458710193634,
        -0.19956503808498383,
        0.7121687531471252,
        0.2180691510438919,
        0.05675412341952324,
        0.11958074569702148,
        -0.0024292697198688984,
        0.3373347520828247,
        0.3990274965763092,
        0.33358731865882874,
        0.44490954279899597,
        0.7026346921920776,
        0.25155866146087646,
        0.17832684516906738,
        0.38743966817855835,
        -0.1501450389623642,
        1.189910888671875,
        0.5500969886779785,
        3.313351631164551,
        0.6162639856338501,
        -0.14378459751605988,
        -0.3170519769191742,
        -0.09783703088760376,
        -0.02395852841436863,
        0.9605377316474915,
        0.45918259024620056,
        -0.024113379418849945,
        0.20277568697929382,
        0.4723421335220337,
        0.5097641944885254,
        0.3048343062400818,
        -0.8200681805610657,
        0.6053038835525513,
        0.02685799077153206,
        -0.6346995830535889,
        -0.6558474898338318,
        -0.22476494312286377,
        0.11277571320533752,
        -0.07269144803285599,
        -0.005128372460603714,
        -2.556182384490967,
        -0.4565689265727997,
        -2.7669825553894043,
        -0.15932905673980713,
        -0.5197622179985046,
        -0.33642056584358215,
        -0.32535675168037415,
        -0.0022226653527468443,
        -1.9858832359313965,
        -0.6334123015403748,
        0.6644020080566406,
        0.31327223777770996,
        -0.06554767489433289,
        0.23414084315299988,
        -0.31725358963012695,
        -0.1670132577419281,
        0.5942482352256775,
        1.3515554666519165,
        -2.613955020904541,
        -2.6491634845733643,
        1.404679298400879,
        0.7288766503334045,
        1.6912208795547485,
        -0.29420503973960876,
        -3.1596500873565674,
        0.1639632284641266,
        2.6696977615356445,
        1.2623436450958252,
        0.0957818478345871,
        -0.36585327982902527,
        -0.12843801081180573,
        -0.5267673134803772,
        2.16552996635437,
        1.098418951034546,
        1.0448585748672485,
        -0.2707352936267853,
        1.3598458766937256,
        1.348646879196167,
        1.6231948137283325,
        -1.498145341873169,
        0.11299525946378708,
        -0.7307732105255127,
        0.36471304297447205,
        1.633954405784607,
        1.4126473665237427,
        0.06360530853271484,
        0.24632233381271362,
        0.32333865761756897,
        1.3520773649215698,
        2.5749447345733643,
        1.1729836463928223,
        0.3716961741447449,
        2.9883830547332764,
        1.1631823778152466,
        3.2763543128967285,
        -1.465842604637146,
        2.0835442543029785
      ]
    },
    {
      "activation": "rectified",
      "architecture": "dense",
      "bias": [
        -0.07694651931524277,
        0.0,
        -0.15652956068515778,
        0.0,
        -0.08507926017045975,
        0.0,
        0.0,
        0.0,
        -0.061340078711509705,
        -0.08380608260631561,
        -0.03175991401076317,
        -0.16266781091690063,
        -0.08868177980184555,
        -0.1743491291999817,
        -0.04999791830778122,
        -0.07404395192861557,
        -0.14749988913536072,
        -0.06407076120376587,
        -0.09857923537492752,
        -0.07627569139003754,
        -0.01941796764731407,
        0.0,
        -0.12128619104623795,
        -0.05120239034295082,
        -0.04567655920982361,
        -0.07790070027112961,
        -0.004485595040023327,
        -0.07829245179891586,
        -0.042355556041002274,
        -0.031749382615089417,
        0.0,
        0.0
      ],
      "weights": [
        0.2815513610839844,
        0.17632538080215454,
        0.13287481665611267,
        0.11462725698947906,
        -0.034404680132865906,
        0.21204707026481628,
        -0.15434396266937256,
        -0.2573893070220947,
        0.0027823448181152344,
        -0.32481029629707336,
        -0.19519160687923431,
        -0.17690937221050262,
        0.07880853861570358,
        -0.15670683979988098,
        -0.11375320702791214,
        -0.236350879073143,
        -0.19436751306056976,
        -0.22543209791183472,
        -0.14335046708583832,
        -0.1479865163564682,
        0.05128437280654907,
        -0.33487626910209656,
        0.29177483916282654,
        0.1354031264781952,
        0.01684245653450489,
        0.11154767125844955,
        0.05284168943762779,
        0.10403662919998169,
        -0.028484702110290527,
        -0.08882100880146027,
        0.12107598781585693,
        0.22473683953285217,
        -0.28173747658729553,
        -0.23158389329910278,
        -0.0954204648733139,
        -0.2871176302433014,
        -0.2182929813861847,
        0.11675545573234558,
        -0.2588285505771637,
        0.0255487859249115,
        -0.09503750503063202,
        0.1562936007976532,
        0.25184884667396545,
        0.08190032839775085,
        -0.2333962768316269,
        -0.25075602531433105,
        -0.2367655336856842,
        0.0183488130569458,
        -0.002852410078048706,
        -0.13808457553386688,
        -0.25790998339653015,
        -0.14129871129989624,
        0.1867978870868683,
        -0.2661821246147156,
        0.1004629135131836,
        -0.07596276700496674,
        0.1941153109073639,
        -0.2656254172325134,
        -0.0031050145626068115,
        0.17831829190254211,
        -0.021338701248168945,
        -0.18779799342155457,
        0.1689886748790741,
        -0.06673185527324677,
        -0.22690556943416595,
        0.04674309492111206,
        0.1213860809803009,
        -0.19016340374946594,
        0.11741966009140015,
        -0.2908881604671478,
        0.08387254178524017,
        -0.07521776854991913,
        0.18280699849128723,
        -0.15273839235305786,
        0.05350204184651375,
        -0.14957799017429352,
        -0.37770766019821167,
        0.10379806160926819,
        0.0645228922367096,
        -0.14340239763259888,
        0.27126744389533997,
        0.05233493819832802,
        -0.15105538070201874,
        0.03337794542312622,
        0.2779848277568817,
        0.20053762197494507,
        -0.05735640600323677,
        0.20201286673545837,
        -0.27030861377716064,
        0.11563000082969666,
        0.01917477324604988,
        0.1954382359981537,
        0.15981391072273254,
        0.1818205714225769,
        0.058084309101104736,
        -0.12100057303905487,
        0.07632318139076233,
        0.20344606041908264,
        0.05251115560531616,
        -0.20725451409816742,
        -0.04224911332130432,
        -0.07142768800258636,
        0.0676121711730957,
        -0.07538628578186035,
        -0.26883670687675476,
        0.1903853416442871,
        -0.058425650000572205,
        -0.016475200653076172,
        -0.056927233934402466,
        0.2795700132846832,
        -0.05163988471031189,
        0.0868825614452362,
        -0.25984159111976624,
        -0.024187177419662476,
        -0.24412193894386292,
        0.039208412170410156,
        -0.14766567945480347,
        0.05960780382156372,
        -0.04931372404098511,
        -0.16565190255641937,
        0.16708534955978394,
        -0.13248054683208466,
        -0.1426643431186676,
        -0.04679974913597107,
        0.22670426964759827,
        0.14576852321624756,
        0.03101825714111328,
        0.14186373353004456,
        0.13837270438671112,
        -0.058292195200920105,
        0.09422516822814941,
        -0.30486518144607544,
        -0.2115955948829651,
        -0.10742692649364471,
        0.09722427278757095,
        0.14420686662197113,
        0.05831053853034973,
        0.0667208582162857,
        0.19647079706192017,
        0.22700396180152893,
        -0.29026782512664795,
        0.19565755128860474,
        0.19107015430927277,
        0.14675629138946533,
        -0.07367618381977081,
        0.1775968372821808,
        -0.07109443843364716,
        0.10440170764923096,
        0.3052487075328827,
        -0.002383618848398328,
        0.14127518236637115,
        -0.1972031444311142,
        -0.22329524159431458,
        0.0679793655872345,
        -0.14560744166374207,
        0.1790263056755066,
        -0.2327890694141388,
        0.19561251997947693,
        0.26978519558906555,
        -0.02184349298477173,
        0.1739315390586853,
        0.027882099151611328,
        -0.2392500340938568,
        0.274836927652359,
        -0.27910107374191284,
        0.17579326033592224,
        -0.29361510276794434,
        -0.08570030331611633,
        -0.2401028275489807,
        0.14611616730690002,
        0.30174019932746887,
        -0.1300256848335266,
        -0.04983574151992798,
        -0.10039384663105011,
        -0.28951072692871094,
        -0.2911389172077179,
        -0.08909417688846588,
        -0.08504031598567963,
        -0.2614665627479553,
        0.07841837406158447,
        0.1481298804283142,
        0.13211297988891602,
        -0.19644203782081604,
        0.2053767740726471,
        0.18735748529434204,
        -0.1290067434310913,
        -0.153359055519104,
        0.2749539911746979,
        -0.06885413825511932,
        0.12205842137336731,
        0.09227976202964783,
        -0.08249039947986603,
        0.02200445532798767,
        -0.1222371906042099,
        0.14447444677352905,
        0.028626322746276855,
        -0.22413542866706848,
        -0.049661725759506226,
        -0.17513407766819,
        0.2613132894039154,
        0.11609295010566711,
        -0.11735294759273529,
        0.0742557942867279,
        0.21316030621528625,
        -0.053659796714782715,
        0.2549298107624054,
        -0.23149892687797546,
        0.04012516140937805,
        0.053045809268951416,
        -0.29694807529449463,
        -0.2779635787010193,
        0.27727165818214417,
        0.1596667468547821,
        -0.23941028118133545,
        0.06923028826713562,
        0.25333842635154724,
        -0.10784339904785156,
        0.21171405911445618,
        -0.20015455782413483,
        0.1707032322883606,
        -0.20191839337348938,
        0.2039741575717926,
        0.11605027318000793,
        -0.029993414878845215,
        -0.12521350383758545,
        0.0018151700496673584,
        -0.24508234858512878,
        0.11137434840202332,
        -0.2699667513370514,
        0.05496877431869507,
        0.09316831827163696,
        -0.06792804598808289,
        -0.021978318691253662,
        0.22067615389823914,
        0.20281651616096497,
        0.15179100632667542,
        -0.14383584260940552,
        0.2541048228740692,
        0.1337580680847168,
        -0.26988309621810913,
        0.10253575444221497,
        0.14237314462661743,
        0.11080634593963623,
        -0.2972419261932373,
        0.24681410193443298,
        0.20100685954093933,
        0.28347155451774597,
        0.24136772751808167,
        -0.13030768930912018,
        0.0010471045970916748,
        -0.06218509376049042,
        -0.1818377822637558,
        -0.10059569776058197,
        0.11345809698104858,
        -0.25516101717948914,
        0.1793278157711029,
        -0.16869105398654938,
        -0.03285723924636841,
        0.07846507430076599,
        0.10344771295785904,
        0.006661528721451759,
        -0.0444091260433197,
        -0.2045988142490387,
        -0.09666097164154053,
        0.06621742248535156,
        0.10914316773414612,
        -0.13106001913547516,
        0.2770792543888092,
        -0.3405022919178009,
        0.09096934646368027,
        0.19613933563232422,
        -0.32736489176750183,
        -0.21515601873397827,
        -0.1712689846754074,
        -0.1778256744146347,
        0.002025991678237915,
        0.2393195927143097,
        -0.16937048733234406,
        0.00270415423437953,
        -0.2111380696296692,
        -0.06784135103225708,
        0.22855453193187714,
        0.11720611900091171,
        -0.016738414764404297,
        0.050603777170181274,
        0.08983474969863892,
        0.21711978316307068,
        0.1648050844669342,
        -0.1967027634382248,
        0.29518380761146545,
        0.06818464398384094,
        -0.014281360432505608,
        0.12159674614667892,
        -0.003886699676513672,
        0.08588047325611115,
        -0.02015179581940174,
        -0.2653079330921173,
        0.07847320288419724,
        0.17791898548603058,
        -0.050384342670440674,
        -0.17798662185668945,
        -0.09188128262758255,
        -0.19256384670734406,
        -0.189522385597229,
        0.06641826033592224,
        -0.12376529723405838,
        0.2125442922115326,
        -0.12933751940727234,
        0.28709837794303894,
        0.25087761878967285,
        0.12209689617156982,
        -0.15042035281658173,
        -0.03129144012928009,
        -0.04980335012078285,
        0.0076965331099927425,
        0.2321051061153412,
        -0.13482116162776947,
        0.09538835287094116,
        0.17528459429740906,
        -0.13175638020038605,
        -0.0836046040058136,
        -0.22446751594543457,
        -0.25106552243232727,
        -0.21941785514354706,
        -0.18722113966941833,
        0.2476363480091095,
        -0.22582174837589264,
        0.15392255783081055,
        -0.16963669657707214,
        -0.2775081396102905,
        -0.16910775005817413,
        -0.05434900522232056,
        -0.32557347416877747,
        -0.19326572120189667,
        -0.1383618414402008,
        0.16282042860984802,
        0.15439990162849426,
        -0.16225773096084595,
        0.12640750408172607,
        0.14348384737968445,
        0.10549825429916382,
        0.09694662690162659,
        -0.21225759387016296,
        0.07507318258285522,
        0.17547918856143951,
        -0.027809472754597664,
        0.21260716021060944,
        0.27352914214134216,
        0.3059990108013153,
        0.2219262421131134,
        -0.10266357660293579,
        0.15286272764205933,
        -0.11330973356962204,
        -0.1371719241142273,
        0.2804770767688751,
        -0.3311375081539154,
        0.05718341842293739,
        -0.02032485604286194,
        0.027168836444616318,
        0.14149178564548492,
        -0.0771271288394928,
        -0.05191295966506004,
        -0.2813899517059326,
        -0.17718817293643951,
        0.07250536978244781,
        0.18181154131889343,
        0.11220135539770126,
        -0.24936465919017792,
        0.19509032368659973,
        0.14853328466415405,
        0.18691906332969666,
        0.09385183453559875,
        0.2648727595806122,
        -0.318753182888031,
        -0.18047907948493958,
        -0.03271985054016113,
        -0.02487878128886223,
        0.1992621272802353,
        -0.2363555133342743,
        -0.020643502473831177,
        -0.1292572170495987,
        -0.056207314133644104,
        0.23760995268821716,
        -0.22298574447631836,
        0.2612166702747345,
        -0.05155205726623535,
        -0.027050256729125977,
        -0.3449968993663788,
        -0.20108851790428162,
        -0.06412982940673828,
        -0.15114165842533112,
        0.010894447565078735,
        -0.23685145378112793,
        -0.19558826088905334,
        -0.21630512177944183,
        -0.22484004497528076,
        -0.24215348064899445,
        -0.22569574415683746,
        -0.0468917191028595,
        0.07458125054836273,
        0.049841076135635376,
        0.08522899448871613,
        0.13781243562698364,
        0.21543601155281067,
        -0.016493290662765503,
        0.08724100887775421,
        -0.258092999458313,
        -0.2928641438484192,
        -0.24040964245796204,
        0.07482308149337769,
        0.23402127623558044,
        0.12727028131484985,
        -0.10732370615005493,
        0.11548933386802673,
        -0.21528536081314087,
        -0.27361297607421875,
        0.213252454996109,
        -0.259074866771698,
        -0.19907356798648834,
        0.1258322298526764,
        0.010352757759392262,
        0.29846057295799255,
        -0.15346194803714752,
        0.08402203768491745,
        0.09789708256721497,
        -0.18663716316223145,
        0.09997425973415375,
        -0.104948490858078,
        0.07864689081907272,
        0.019518693909049034,
        -0.0296512171626091,
        -0.007146305404603481,
        -0.07938817143440247,
        -0.1968284547328949,
        0.08784353733062744,
        0.16377192735671997,
        0.044296979904174805,
        -0.0962500125169754,
        -0.06705747544765472,
        -0.11262938380241394,
        0.0841691717505455,
        0.3651329278945923,
        -0.08797288686037064,
        0.1471504271030426,
        0.12371903657913208,
        0.05683290958404541,
        -0.06562618911266327,
        -0.30180788040161133,
        0.052098192274570465,
        0.16233927011489868,
        0.27508923411369324,
        -0.18933990597724915,
        -0.09658975154161453,
        -0.23577360808849335,
        0.10110539197921753,
        0.12385788559913635,
        -0.02940496802330017,
        0.24977318942546844,
        0.19491106271743774,
        -0.26749056577682495,
        -0.13493704795837402,
        -0.048475105315446854,
        -0.17054353654384613,
        -0.2840958535671234,
        -0.13882385194301605,
        -0.1073727160692215,
        -0.2839546501636505,
        0.22932443022727966,
        -0.024963319301605225,
        0.23688846826553345,
        -0.19620414078235626,
        -0.14703130722045898,
        0.07235094904899597,
        0.07399973273277283,
        -0.1026051938533783,
        0.117911696434021,
        0.18662354350090027,
        0.008901834487915039,
        0.20626601576805115,
        -0.1014939695596695,
        -0.1920423060655594,
        -0.05970242619514465,
        -0.16840015351772308,
        -0.053333181887865067,
        -0.06919143348932266,
        -0.2819971442222595,
        -0.24284400045871735,
        -0.2112182080745697,
        -0.1118161529302597,
        -0.22946575284004211,
        -0.28731271624565125,
        0.07842859625816345,
        -0.2514823377132416,
        -0.29880857467651367,
        -0.226159006357193,
        -0.2278890758752823,
        -0.1488807648420334,
        -0.04066075384616852,
        -0.08412262797355652,
        -0.22079727053642273,
        0.2509348690509796,
        0.2130173295736313,
        0.21112826466560364,
        0.08036383986473083,
        -0.18215036392211914,
        0.1095544844865799,
        0.18582886457443237,
        -0.303847074508667,
        -0.08645826578140259,
        -0.0018104016780853271,
        -0.11676712334156036,
        0.09282398223876953,
        0.05660703033208847,
        -0.040641337633132935,
        -0.2544468343257904,
        -0.316799134016037,
        0.02981928363442421,
        -0.26519542932510376,
        0.042660318315029144,
        -0.3502880930900574,
        0.11369848251342773,
        -0.20003676414489746,
        -0.017961161211133003,
        -0.30174684524536133,
        0.08171407133340836,
        -0.21202559769153595,
        -0.09381429851055145,
        0.11488788574934006,
        0.09173110127449036,
        -0.11075113713741302,
        -0.2746486961841583,
        -0.003537386655807495,
        -0.06459185481071472,
        -0.23359812796115875,
        0.21257472038269043,
        0.09349521994590759,
        0.15443405508995056,
        -0.30287373065948486,
        -0.2693139910697937,
        -0.2878221571445465,
        0.06619033217430115,
        -0.23355716466903687,
        0.2979620397090912,
        -0.08089366555213928,
        0.0653618574142456,
        -0.05269649624824524,
        -0.17299282550811768,
        0.20704299211502075,
        0.0948868840932846,
        0.024447500705718994,
        0.07029333710670471,
        -0.029493004083633423,
        -0.03953748941421509,
        -0.20642894506454468,
        0.013207465410232544,
        0.12122729420661926,
        -0.3646602928638458,
        -0.14760567247867584,
        -0.10549366474151611,
        -0.0019293427467346191,
        -0.027995526790618896,
        -0.017917871475219727,
        -0.2504463493824005,
        0.09106278419494629,
        0.22752216458320618,
        0.014048129320144653,
        -0.0927020013332367,
        -0.10110683739185333,
        -0.021235857158899307,
        -0.06132514774799347,
        -0.3520045876502991,
        -0.1979135125875473,
        -0.23084476590156555,
        0.05257174372673035,
        0.26998141407966614,
        0.2677863538265228,
        0.031613461673259735,
        -0.24186550080776215,
        -0.12298288941383362,
        -0.07084516435861588,
        0.053962428122758865,
        -0.22554273903369904,
        -0.15165495872497559,
        -0.10438094288110733,
        -0.27475741505622864,
        -0.08414167165756226,
        0.04951012134552002,
        -0.24517227709293365,
        -0.14840060472488403,
        -0.007283178623765707,
        0.1445341855287552,
        0.1169770359992981,
        0.25771549344062805,
        0.1446869820356369,
        -0.22267447412014008,
        -0.24619033932685852,
        -0.05588114261627197,
        -0.0829131007194519,
        -0.16866834461688995,
        -0.2759758532047272,
        -0.041920747607946396,
        -0.07019810378551483,
        -0.04306519776582718,
        -0.06682486832141876,
        0.032614290714263916,
        -0.049058735370635986,
        0.21521040797233582,
        0.14937585592269897,
        -0.002458868082612753,
        0.21653857827186584,
        0.1372877061367035,
        -0.19564154744148254,
        -0.09018844366073608,
        0.29849180579185486,
        0.0008578169508837163,
        -0.18689829111099243,
        -0.24887238442897797,
        0.18681982159614563,
        0.24070528149604797,
        -0.10049743950366974,
        0.08145593851804733,
        -0.04186670109629631,
        -0.04601166024804115,
        -0.044771600514650345,
        0.19032379984855652,
        0.16666480898857117,
        0.1777401864528656,
        -0.14430685341358185,
        0.12549373507499695,
        0.10876820981502533,
        -0.09107553958892822,
        -0.09839144349098206,
        -0.11204185336828232,
        -0.08533203601837158,
        -0.3494137227535248,
        0.27511534094810486,
        0.1689329743385315,
        0.025415688753128052,
        -0.050475090742111206,
        -0.04391840100288391,
        -0.21487021446228027,
        0.08322113752365112,
        0.16669362783432007,
        0.11444459110498428,
        0.008902649395167828,
        0.013646990060806274,
        -0.0711221843957901,
        0.03915288671851158,
        0.12606242299079895,
        0.21127083897590637,
        -0.1740965098142624,
        0.15845850110054016,
        -0.1451137214899063,
        -0.16273458302021027,
        0.03332895040512085,
        -0.08682391047477722,
        0.19084429740905762,
        0.025235019624233246,
        0.20076432824134827,
        -0.2992763817310333,
        -0.05458939075469971,
        -0.06932488083839417,
        0.07542350888252258,
        -0.04319539666175842,
        0.12051449716091156,
        0.01595841348171234,
        -0.147764652967453,
        -0.2011193335056305,
        0.14939665794372559,
        0.1657659113407135,
        -0.19668571650981903,
        -0.2567053437232971,
        0.11105278134346008,
        0.07311868667602539,
        0.1785363256931305,
        0.0005020201206207275,
        -0.22534695267677307,
        -0.14411091804504395,
        -0.2633550763130188,
        -0.05263635516166687,
        -0.22630931437015533,
        0.24759438633918762,
        0.0322113037109375,
        0.1882675290107727,
        -0.1978425681591034,
        -0.08649586141109467,
        0.21470925211906433,
        -0.2924119830131531,
        0.2363705337047577,
        0.16783258318901062,
        -0.061473339796066284,
        0.07855632901191711,
        0.28211739659309387,
        -0.2067478895187378,
        0.3008444011211395,
        -0.17514677345752716,
        -0.13410021364688873,
        0.1834840178489685,
        -0.19037118554115295,
        0.2544448673725128,
        0.04082348942756653,
        -0.042107343673706055,
        0.15553352236747742,
        0.27176418900489807,
        0.08511336147785187,
        -0.011752724647521973,
        -0.11824771761894226,
        -0.09790529310703278,
        -0.03692985326051712,
        -0.17748360335826874,
        -0.050656307488679886,
        0.1729845255613327,
        0.005621999502182007,
        -0.028124826028943062,
        0.1727452278137207,
        -0.047100216150283813,
        0.03309657424688339,
        0.19016824662685394,
        -0.28219494223594666,
        -0.161376491189003,
        0.19759926199913025,
        0.11655253916978836,
        0.10522282123565674,
        0.26366469264030457,
        -0.2191976010799408,
        -0.20235301554203033,
        0.2577517032623291,
        0.28394952416419983,
        -0.09004656225442886,
        0.003961698152124882,
        -0.24031105637550354,
        -0.11337997019290924,
        -0.167899951338768,
        0.09894579648971558,
        0.28057000041007996,
        -0.12224726378917694,
        -0.14801527559757233,
        -0.11235001683235168,
        -0.1252659112215042,
        -0.13522493839263916,
        -0.27293625473976135,
        -0.10411855578422546,
        0.08661207556724548,
        -0.11807164549827576,
        0.19657757878303528,
        -0.2758916914463043,
        -0.03718126565217972,
        0.22684398293495178,
        -0.27200084924697876,
        0.017994463443756104,
        -0.05758036673069,
        0.03892780467867851,
        0.19923898577690125,
        0.2263447344303131,
        -0.1856631636619568,
        -0.11869695782661438,
        0.14641764760017395,
        0.06390491127967834,
        -0.2133069783449173,
        0.18921887874603271,
        0.24326841533184052,
        0.17526723444461823,
        -0.24012231826782227,
        -0.0013529062271118164,
        0.1719159185886383,
        -0.14686186611652374,
        -0.024938851594924927,
        0.07610204815864563,
        -0.028007442131638527,
        -0.025918543338775635,
        -0.25728970766067505,
        0.1812210977077484,
        -0.055538251996040344,
        -0.1315615475177765,
        -0.11555255204439163,
        0.14343412220478058,
        0.11446243524551392,
        -0.2984559237957001,
        0.2255028933286667,
        0.1402919590473175,
        0.1343662142753601,
        0.10910859704017639,
        -0.075178362429142,
        0.1771695911884308,
        -0.2706018388271332,
        -0.013117936439812183,
        -0.10566797852516174,
        -0.15531036257743835,
        0.16036105155944824,
        -0.14944469928741455,
        0.09656831622123718,
        -0.12807248532772064,
        -0.2493608295917511,
        -0.2215563952922821,
        -0.024221200495958328,
        0.2467488944530487,
        0.0657937228679657,
        0.18785697221755981,
        -0.27888381481170654,
        -0.08830788731575012,
        -0.15118667483329773,
        0.06741148233413696,
        0.2532287538051605,
        -0.10780108720064163,
        0.1056726723909378,
        0.045189857482910156,
        -0.2499513477087021,
        0.1630580723285675,
        -0.005202442407608032,
        -0.02593122608959675,
        -0.1077471524477005,
        0.2876506745815277,
        -0.1982431411743164,
        0.2377423644065857,
        0.08997447043657303,
        0.13545723259449005,
        -0.020387351512908936,
        -0.10892298817634583,
        -0.24533222615718842,
        0.1803634762763977,
        0.18912264704704285,
        0.21568168699741364,
        -0.11050765216350555,
        -0.003434807062149048,
        0.04976329579949379,
        -0.11677968502044678,
        -0.24015510082244873,
        -0.01991364359855652,
        -0.03758510947227478,
        -0.20814430713653564,
        5.313754081726074e-05,
        -0.23201590776443481,
        0.10659751296043396,
        -0.027663230895996094,
        -0.02346426248550415,
        -0.040858883410692215,
        -0.14731331169605255,
        0.29460248351097107,
        -0.1975274235010147,
        0.06384200602769852,
        0.013454288244247437,
        0.22585168480873108,
        0.25040462613105774,
        -0.14608046412467957,
        0.20238682627677917,
        0.05580645054578781,
        0.0606197789311409,
        -0.1530434638261795,
        -0.30404898524284363,
        -0.24715271592140198,
        -0.24000436067581177,
        -0.18008452653884888,
        -0.06590330600738525,
        -0.2135590761899948,
        0.37048983573913574,
        0.28858861327171326,
        0.23271089792251587,
        -0.04879302158951759,
        -0.1394655555486679,
        0.20898011326789856,
        -0.13053998351097107,
        -0.12752513587474823,
        -0.21478524804115295,
        0.018357664346694946,
        0.12699061632156372,
        -0.02408820390701294,
        0.16053062677383423,
        -0.17403161525726318,
        0.19657103717327118,
        0.2108171284198761,
        0.1063811182975769,
        0.07975354045629501,
        -0.072423055768013,
        -0.17035667598247528,
        0.199045330286026,
        0.23578760027885437,
        -0.2585945427417755,
        -0.08484415709972382,
        -0.26831555366516113,
        -0.061953481286764145,
        -0.16001363098621368,
        -0.27385300397872925,
        0.013963669538497925,
        0.019417554140090942,
        -0.2504371404647827,
        0.09637045860290527,
        -0.07006141543388367,
        0.039800435304641724,
        -0.2510383725166321,
        -0.24675258994102478,
        0.03571189567446709,
        0.1002320647239685,
        -0.03972861170768738,
        0.18700286746025085,
        -0.2280312478542328,
        -0.26205721497535706,
        -0.07296405732631683,
        -0.13148526847362518,
        0.06582841277122498,
        -0.09496369957923889,
        -0.1962967813014984,
        0.018109232187271118,
        -0.2737021744251251,
        -0.22595804929733276,
        0.17437604069709778,
        0.21239587664604187,
        -0.18540838360786438,
        -0.09542696177959442,
        -0.02826201543211937,
        -0.17786049842834473,
        -0.2389756292104721,
        -0.1854560524225235,
        0.17224624752998352,
        0.000414794689277187,
        0.08068189024925232,
        0.30252745747566223,
        -0.15787449479103088,
        0.171921044588089,
        -0.29412537813186646,
        -0.010569453239440918,
        0.10718855261802673,
        0.2564995288848877,
        -0.2977595329284668,
        -0.00689658522605896,
        -0.15235646069049835,
        -0.09709729254245758,
        -0.17952710390090942,
        -0.09327907860279083,
        0.02023494243621826,
        -0.15416745841503143,
        0.04591140151023865,
        0.01592317223548889,
        -0.3207795023918152,
        -0.17396460473537445,
        0.10110297799110413,
        -0.20668509602546692,
        -0.23294951021671295,
        -0.17600391805171967,
        0.21221919357776642,
        -0.2414504885673523,
        -0.2208666056394577,
        0.05269065499305725,
        0.03520733118057251,
        -0.20303165912628174,
        0.12563076615333557,
        0.031228287145495415,
        -0.27177709341049194,
        -0.06257200241088867,
        0.13575682044029236,
        -0.2749117910861969,
        -0.0951993465423584,
        -0.12540264427661896,
        0.05407102406024933,
        0.08523889631032944,
        -0.05229310691356659,
        -0.13913169503211975,
        0.1517626941204071,
        0.08068707585334778,
        -0.037621527910232544,
        0.16746428608894348,
        -0.10503901541233063,
        -0.04655817151069641,
        -0.023528635501861572,
        0.09754151105880737,
        -0.04241064190864563,
        -0.24724380671977997,
        0.14593586325645447,
        -0.1222403347492218,
        0.019686758518218994,
        -0.12633536756038666,
        -0.2982042729854584,
        0.1902785301208496,
        -0.2192632257938385,
        0.29705366492271423,
        0.05837550759315491,
        0.06256434321403503,
        -0.2319399118423462,
        -0.05739721655845642,
        0.29749032855033875,
        0.16825509071350098,
        -0.2882501482963562,
        -0.02973031997680664,
        0.008656620979309082,
        0.222466379404068,
        0.08963087201118469,
        0.051322996616363525,
        -0.05295521020889282,
        -0.12027144432067871,
        -0.2971521317958832,
        -0.054130226373672485,
        0.2926376760005951,
        0.09154602885246277,
        0.151149183511734,
        0.07404053211212158,
        -0.103475421667099,
        -0.04405936598777771,
        -0.22625821828842163,
        -0.12823352217674255,
        -0.2587450444698334,
        0.23331782221794128,
        -0.17621667683124542,
        -0.22820398211479187,
        -0.1027018278837204,
        -0.07752323150634766,
        -0.0011395514011383057,
        0.08217322826385498,
        0.19451066851615906,
        0.021837443113327026,
        0.25481846928596497,
        -0.07095319032669067,
        0.24348267912864685,
        0.2566002309322357,
        0.18115180730819702,
        0.21797797083854675,
        0.11247149109840393,
        -0.23909848928451538,
        0.21201559901237488,
        -0.09654314815998077,
        -0.07075206935405731,
        0.0042868852615356445,
        -0.25546950101852417,
        0.15006381273269653,
        0.07445985078811646,
        -0.2420777976512909
      ]
    },
    {
      "activation": "rectified",
      "architecture": "dense",
      "bias": [
        -0.44456297159194946,
        0.6991869807243347,
        -1.5582160949707031,
        -1.2423229217529297,
        -1.3867748975753784,
        0.7977495193481445,
        0.8358762860298157,
        -0.7539559006690979,
        -0.0011025931453332305,
        -1.8407959938049316,
        -0.311253160238266,
        -0.10119939595460892,
        -0.14005503058433533,
        0.21843846142292023,
        0.7003641724586487,
        0.48597434163093567
      ],
      "weights": [
        0.22682249546051025,
        1.4385915994644165,
        1.0605791807174683,
        1.206965684890747,
        0.4430416226387024,
        1.671250343322754,
        0.10818638652563095,
        0.18339593708515167,
        -0.09510292857885361,
        0.5291590094566345,
        0.11869955062866211,
        -0.18958322703838348,
        0.20735467970371246,
        0.06718626618385315,
        -0.00928508024662733,
        1.5471630096435547,
        -0.3574482798576355,
        2.4573142528533936,
        0.5311828851699829,
        2.0854251384735107,
        -0.05708255618810654,
        1.121619462966919,
        0.2865505814552307,
        0.25648245215415955,
        -0.1900547444820404,
        0.8367781043052673,
        -0.3220382332801819,
        -0.5937738418579102,
        0.14523304998874664,
        0.9446127414703369,
        0.24737916886806488,
        -0.06576015055179596,
        0.4831743538379669,
        -1.8330262899398804,
        -2.0630416870117188,
        -1.0212970972061157,
        -0.03721218556165695,
        -1.211018681526184,
        0.08839630335569382,
        0.11621782183647156,
        -0.19177617132663727,
        -0.2215232253074646,
        0.25407591462135315,
        -0.5381295084953308,
        0.04014718160033226,
        -0.768470287322998,
        -2.33835506439209,
        -0.8922883868217468,
        0.3064947724342346,
        -0.6371518969535828,
        -0.42978599667549133,
        -0.810296893119812,
        0.3942129909992218,
        -0.9857451915740967,
        0.07483343780040741,
        0.029540207237005234,
        0.4617479145526886,
        0.013170751743018627,
        0.09415097534656525,
        0.09979674220085144,
        -0.04010595753788948,
        0.0065058572217822075,
        -0.16353698074817657,
        -0.5094170570373535,
        0.4846130311489105,
        -1.1033604145050049,
        -0.9330335855484009,
        -1.5249805450439453,
        0.08540307730436325,
        0.04620622098445892,
        0.11381839960813522,
        0.38246041536331177,
        0.4134276807308197,
        0.47280970215797424,
        -0.5256141424179077,
        -0.4027842581272125,
        -0.1721581667661667,
        -1.0305695533752441,
        -6.385887145996094,
        -1.2778551578521729,
        -0.17294614017009735,
        -0.6348235607147217,
        -1.051438331604004,
        -0.07304588705301285,
        0.04866612330079079,
        -0.4635029137134552,
        0.22536221146583557,
        0.5346817970275879,
        -0.7631059885025024,
        -0.14047695696353912,
        -0.43150240182876587,
        -1.9512689113616943,
        0.13663411140441895,
        -0.8313854932785034,
        -1.3153048753738403,
        -0.1596704125404358,
        -0.7201431393623352,
        1.939430832862854,
        1.7661957740783691,
        0.7968974113464355,
        -0.08720801770687103,
        2.607201337814331,
        0.14749275147914886,
        0.2073892503976822,
        -0.23351149260997772,
        0.8286587595939636,
        -0.14362837374210358,
        -0.4323238134384155,
        -0.28036394715309143,
        0.9347467422485352,
        0.13704176247119904,
        1.6748039722442627,
        -4.150125026702881,
        -2.631182909011841,
        -2.4100708961486816,
        -1.9613468647003174,
        -0.3406544029712677,
        -0.42714494466781616,
        0.3821706771850586,
        0.3767443895339966,
        0.36477118730545044,
        -0.48576784133911133,
        -0.30475690960884094,
        -0.2818980813026428,
        0.13713288307189941,
        -0.9043725728988647,
        -0.30719423294067383,
        -0.4386845529079437,
        -0.08248013257980347,
        -0.04854198917746544,
        -0.21667057275772095,
        -0.98553466796875,
        -0.17886686325073242,
        -0.7483754754066467,
        0.12785562872886658,
        -0.14492645859718323,
        -5.240931034088135,
        -0.09214121103286743,
        0.08499892801046371,
        0.0819711908698082,
        -0.14362864196300507,
        0.2728578746318817,
        -0.5375066995620728,
        -0.8900266885757446,
        0.40185263752937317,
        -2.3721256256103516,
        -3.2209975719451904,
        -1.3507848978042603,
        -0.06709302216768265,
        -1.0747514963150024,
        0.3292473554611206,
        0.2801743149757385,
        -1.8504143953323364,
        -0.0653420090675354,
        -0.4272289574146271,
        0.008442179299890995,
        -0.07718273252248764,
        -1.1573593616485596,
        -0.5787815451622009,
        -2.580249071121216,
        -0.4522395133972168,
        -0.03602029010653496,
        0.04711959511041641,
        -0.10925701260566711,
        -0.01898924633860588,
        -0.15765279531478882,
        -0.12820188701152802,
        -0.14235945045948029,
        -0.14108897745609283,
        -0.21686717867851257,
        -0.04235079884529114,
        -0.23760899901390076,
        0.06832780689001083,
        -0.19508565962314606,
        0.05336169898509979,
        -0.1829470992088318,
        0.22510360181331635,
        -1.7802505493164062,
        -1.6394448280334473,
        -0.3371080458164215,
        0.3937840759754181,
        -0.18607088923454285,
        1.0076546669006348,
        0.9272451400756836,
        -0.39312389492988586,
        -0.17044956982135773,
        -0.6983428597450256,
        -1.0526028871536255,
        0.10455870628356934,
        -1.413316011428833,
        -0.4577913284301758,
        -0.886898398399353,
        0.26200851798057556,
        -3.8930611610412598,
        -4.804844856262207,
        -1.212528109550476,
        0.13437099754810333,
        -2.997466564178467,
        0.05742983520030975,
        0.28037506341934204,
        -1.8749563694000244,
        0.08368133008480072,
        -0.4151681959629059,
        0.20452728867530823,
        -0.10490750521421432,
        -0.7971068024635315,
        -0.44810307025909424,
        -2.824497699737549,
        -0.5002120733261108,
        -0.8129020929336548,
        -1.0442306995391846,
        -0.013189548626542091,
        -0.26543328166007996,
        -0.13521859049797058,
        0.6301447153091431,
        0.7008164525032043,
        0.06172308325767517,
        -0.07580867409706116,
        -0.6587582230567932,
        -0.29115769267082214,
        0.27723732590675354,
        -0.1304810494184494,
        -2.4868013858795166,
        -0.2814866602420807,
        -0.12550830841064453,
        1.0413910150527954,
        0.8822572231292725,
        0.857745885848999,
        -0.2610282599925995,
        1.282446026802063,
        0.16513343155384064,
        0.20798221230506897,
        -0.42062100768089294,
        0.014352504163980484,
        -0.15418362617492676,
        -0.5263545513153076,
        0.35839352011680603,
        -0.19202221930027008,
        0.39418554306030273,
        0.5798845887184143,
        -0.6361485719680786,
        1.9035183191299438,
        1.0946227312088013,
        1.132428765296936,
        0.10944928973913193,
        1.1139978170394897,
        -1.17632257938385,
        0.002269476419314742,
        -0.2263372242450714,
        0.14771586656570435,
        0.8387657999992371,
        0.13739228248596191,
        -0.19054460525512695,
        0.16117747128009796,
        0.49018728733062744,
        0.7782626152038574
      ]
    },
    {
      "activation": "rectified",
      "architecture": "dense",
      "bias": [
        -0.015484889969229698,
        -0.10897447168827057,
        -0.08555211871862411,
        -0.03379781171679497,
        -0.0800771564245224,
        -0.0673401802778244,
        0.0,
        -0.0030577729921787977,
        -0.0359022431075573,
        -0.01082859467715025,
        -0.05459294468164444,
        -0.13425534963607788,
        -0.11507650464773178,
        0.0,
        -0.07803750783205032,
        -0.0858403891324997,
        -0.10433895140886307,
        -0.05672598257660866,
        -0.025985168293118477,
        -0.0950627252459526,
        -0.10646986961364746,
        -0.05796920880675316,
        -0.023340491577982903,
        -0.040839746594429016,
        -0.1532699167728424,
        -0.13655270636081696,
        -0.24974115192890167,
        -0.04698829725384712,
        -0.0014481385005638003,
        -0.004583838861435652,
        -0.12360770255327225,
        -0.0708627924323082
      ],
      "weights": [
        -0.30168581008911133,
        0.304280549287796,
        -0.11776678264141083,
        0.014906346797943115,
        0.21370156109333038,
        0.264904648065567,
        -0.08352497220039368,
        0.05289345979690552,
        -0.20948526263237,
        -0.19824716448783875,
        0.07013239711523056,
        -0.041487839072942734,
        -0.008905351161956787,
        0.20610810816287994,
        -0.0758519247174263,
        0.19815784692764282,
        -0.14099974930286407,
        0.006808089092373848,
        0.17717157304286957,
        -0.21232260763645172,
        -0.04413152113556862,
        0.2172287404537201,
        0.19698862731456757,
        -0.19577011466026306,
        0.25970423221588135,
        -0.11101379990577698,
        -0.13988430798053741,
        0.12914542853832245,
        0.10357604175806046,
        -0.206502303481102,
        -0.015310108661651611,
        -0.12566478550434113,
        0.18927161395549774,
        0.2989594042301178,
        -0.004510338418185711,
        0.1556496024131775,
        -0.13604971766471863,
        0.259838730096817,
        0.2965477406978607,
        -0.10839076340198517,
        0.13443207740783691,
        -0.2075491100549698,
        0.12815645337104797,
        -0.0789366289973259,
        0.08345159888267517,
        0.017152737826108932,
        0.24637708067893982,
        -0.04087954759597778,
        0.16838553547859192,
        0.21361181139945984,
        0.07506600767374039,
        -0.21943989396095276,
        -0.02951153740286827,
        0.270934134721756,
        -0.21420839428901672,
        -0.1774027943611145,
        -0.0870453491806984,
        -0.24149848520755768,
        -0.3026774525642395,
        0.061634957790374756,
        0.16501766443252563,
        -0.1272452473640442,
        -0.2841092646121979,
        0.1942979395389557,
        0.03399718925356865,
        0.03367549180984497,
        -0.059191107749938965,
        -0.2658882141113281,
        0.03651557117700577,
        0.23174217343330383,
        -0.10682453215122223,
        -0.1618068963289261,
        -0.1713625192642212,
        0.14366112649440765,
        -0.10573805868625641,
        -0.11591663211584091,
        -0.0564732551574707,
        -0.23822318017482758,
        -0.2487637847661972,
        0.02382415533065796,
        -0.013591958209872246,
        -0.20924749970436096,
        0.00646135164424777,
        0.18468821048736572,
        -0.2676163613796234,
        -0.1473766714334488,
        -0.1451089084148407,
        -0.027383953332901,
        0.027078138664364815,
        -0.08523578941822052,
        -0.24623489379882812,
        -0.1525011509656906,
        0.18328624963760376,
        0.279045432806015,
        -0.26708221435546875,
        0.21202144026756287,
        -0.001972607569769025,
        -0.08310389518737793,
        0.19144445657730103,
        0.2717985212802887,
        0.2398783415555954,
        0.2852505147457123,
        -0.15678942203521729,
        -0.22527840733528137,
        -0.1834481656551361,
        0.04780289903283119,
        0.2651959955692291,
        0.15173836052417755,
        -0.2956521809101105,
        -0.41191765666007996,
        0.22554317116737366,
        -0.10743722319602966,
        -0.13879676163196564,
        0.13891762495040894,
        -0.0858335793018341,
        0.23540735244750977,
        -0.2992367148399353,
        0.1462327539920807,
        0.30726251006126404,
        -0.28907957673072815,
        0.07957297563552856,
        0.25786304473876953,
        -0.06293557584285736,
        0.07478168606758118,
        0.18496745824813843,
        -0.0819905698299408,
        -0.0407085120677948,
        0.11543047428131104,
        -0.2244749367237091,
        -0.20113912224769592,
        0.33938586711883545,
        0.12838107347488403,
        0.03485487028956413,
        0.041516900062561035,
        -0.2184007465839386,
        -0.2539685368537903,
        0.23164203763008118,
        -0.2968181371688843,
        0.06745632737874985,
        -0.3060178756713867,
        0.11200445890426636,
        0.1339978277683258,
        0.04331979528069496,
        -0.08478653430938721,
        -0.05594785138964653,
        -0.22602158784866333,
        0.0611368827521801,
        -0.08559203892946243,
        0.12722237408161163,
        0.036668866872787476,
        0.1400866061449051,
        0.0611824132502079,
        -0.25231584906578064,
        -0.23786744475364685,
        0.08456548303365707,
        -0.08837739378213882,
        0.07119233161211014,
        0.2794525921344757,
        -0.011385232210159302,
        0.28970059752464294,
        0.0832209661602974,
        0.0645814836025238,
        -0.02289830707013607,
        0.22196993231773376,
        0.21485942602157593,
        -0.1633426696062088,
        0.20844444632530212,
        -0.274797260761261,
        -0.0929674431681633,
        0.09596921503543854,
        -0.05309763550758362,
        -0.2643390893936157,
        -0.23849722743034363,
        -0.11444547027349472,
        0.02541038766503334,
        0.01856744848191738,
        -0.009303896687924862,
        0.22447869181632996,
        0.10242052376270294,
        0.20561909675598145,
        -0.245772585272789,
        -0.2500925064086914,
        0.21154172718524933,
        0.2187853753566742,
        -0.11307349056005478,
        0.1775321662425995,
        -0.25488847494125366,
        -0.21532566845417023,
        -0.11224788427352905,
        -0.15395940840244293,
        -0.1555430144071579,
        0.2136465609073639,
        -0.2917596399784088,
        -0.09642656147480011,
        0.06432124972343445,
        0.0015932321548461914,
        0.29637089371681213,
        0.08161774277687073,
        -0.18946552276611328,
        -0.21152547001838684,
        -0.1983310878276825,
        0.022233903408050537,
        0.24034127593040466,
        -0.13266056776046753,
        -0.03218838572502136,
        -0.12924976646900177,
        -0.01471412181854248,
        0.27719852328300476,
        -0.27922239899635315,
        0.20058181881904602,
        -0.13626103103160858,
        -0.2643738090991974,
        -0.20349645614624023,
        0.2807476818561554,
        -0.06719096004962921,
        0.10588034987449646,
        0.08761489391326904,
        0.020973920822143555,
        -0.17445188760757446,
        0.10502323508262634,
        -0.21569928526878357,
        -0.004089564085006714,
        -0.08905278146266937,
        0.28273817896842957,
        -0.18983712792396545,
        -0.08218255639076233,
        -0.27488505840301514,
        0.30549320578575134,
        0.04101027920842171,
        -0.1633397489786148,
        -0.1634819656610489,
        -0.11634533107280731,
        -0.015341084450483322,
        0.1746787428855896,
        0.2724122107028961,
        -0.2350803166627884,
        0.020994432270526886,
        0.19488897919654846,
        0.14065232872962952,
        -0.25057369470596313,
        0.014748156070709229,
        0.15969471633434296,
        -0.09634817391633987,
        0.16781917214393616,
        -0.16027051210403442,
        0.023336589336395264,
        -0.2146332710981369,
        0.27121275663375854,
        0.10934692621231079,
        0.16656917333602905,
        0.09196358919143677,
        0.25895026326179504,
        0.0358428992331028,
        0.041463762521743774,
        0.1286678910255432,
        -0.14855745434761047,
        -0.14396539330482483,
        -0.29724550247192383,
        -0.3033812344074249,
        -0.2732127010822296,
        0.1977979838848114,
        0.10362112522125244,
        0.013506412506103516,
        -0.0026904940605163574,
        -0.1129065454006195,
        0.21902413666248322,
        0.0774451196193695,
        -0.09716995805501938,
        0.3304775655269623,
        0.07008956372737885,
        -0.2361244261264801,
        -0.19967183470726013,
        0.028686514124274254,
        0.28574493527412415,
        -0.34229904413223267,
        0.1750296950340271,
        -0.3019151985645294,
        -0.21425963938236237,
        -0.12460753321647644,
        0.06607887148857117,
        0.09294835478067398,
        0.18652428686618805,
        0.1694907695055008,
        0.186193585395813,
        -0.12750233709812164,
        -0.23942342400550842,
        0.054763346910476685,
        -0.12091121077537537,
        -0.2802621126174927,
        0.23538091778755188,
        -0.037997327744960785,
        0.2840297520160675,
        0.18550081551074982,
        -0.1779583990573883,
        -0.23855909705162048,
        0.11678516864776611,
        0.16481655836105347,
        0.20986999571323395,
        0.1410929411649704,
        -0.009582648053765297,
        -0.17095255851745605,
        -0.250124454498291,
        0.1908969283103943,
        0.0012327105505391955,
        -0.03555963933467865,
        0.21076400578022003,
        0.20945517718791962,
        -0.25946927070617676,
        0.2167433798313141,
        -0.19209536910057068,
        0.07858628779649734,
        0.2546077072620392,
        0.2717207074165344,
        0.025564387440681458,
        0.007897595874965191,
        -0.23553137481212616,
        -0.02970483899116516,
        -0.04039173200726509,
        -0.2411852777004242,
        0.25470003485679626,
        -0.055254727602005005,
        -0.27758127450942993,
        -0.25649943947792053,
        0.1058637797832489,
        -0.0328715443611145,
        0.07137280702590942,
        -0.28027552366256714,
        -0.16912752389907837,
        0.2460239827632904,
        0.18760119378566742,
        -0.22878220677375793,
        0.04856376349925995,
        0.14602968096733093,
        -0.2243873029947281,
        0.27044615149497986,
        0.27246567606925964,
        -0.0767386183142662,
        -0.030116945505142212,
        -0.305335134267807,
        -0.2793048322200775,
        -0.18750058114528656,
        0.015258997678756714,
        -0.19331835210323334,
        -0.15756337344646454,
        -0.09641557931900024,
        0.21216438710689545,
        -0.17312473058700562,
        0.047844529151916504,
        -0.06835393607616425,
        0.06269100308418274,
        0.06871455907821655,
        -0.19186988472938538,
        -0.06296393275260925,
        -0.03189799189567566,
        -0.22347036004066467,
        0.2117898166179657,
        0.1005922183394432,
        0.11493796110153198,
        -0.2456986904144287,
        0.03035426139831543,
        -0.0010764598846435547,
        -0.2590886652469635,
        0.2949359118938446,
        0.10689201951026917,
        0.1190396249294281,
        0.10204976797103882,
        -0.16980665922164917,
        -0.1698528528213501,
        0.004541649017482996,
        0.20360973477363586,
        -0.08981075137853622,
        0.19957782328128815,
        0.0178638007491827,
        -0.0479205846786499,
        -0.25233563780784607,
        0.0030274689197540283,
        -0.26751628518104553,
        0.2210346907377243,
        -0.07253865897655487,
        0.14859935641288757,
        0.04359057545661926,
        0.23629525303840637,
        0.12455430626869202,
        -0.015153229236602783,
        0.2142864167690277,
        0.2557685673236847,
        0.05128251016139984,
        -0.3053426444530487,
        0.06142079830169678,
        -0.14681915938854218,
        -0.03779885172843933,
        0.12799590826034546,
        0.13887503743171692,
        0.08756871521472931,
        0.28033027052879333,
        0.15510345995426178,
        -0.16764836013317108,
        -0.08090948313474655,
        -0.1634707748889923,
        0.32816824316978455,
        -0.25398367643356323,
        -0.07102943956851959,
        -0.025399303063750267,
        -0.16625645756721497,
        0.1451973170042038,
        0.02017149329185486,
        -0.32801368832588196,
        -0.11869454383850098,
        -0.10213667899370193,
        -0.04583883658051491,
        0.07143613696098328,
        0.04079955816268921,
        -0.28810787200927734,
        0.08005955815315247,
        0.03292021155357361,
        0.06180623173713684,
        -0.2637617886066437,
        0.25935760140419006,
        0.10639938712120056,
        0.18494394421577454,
        0.1347082257270813,
        -0.26860731840133667,
        0.16987475752830505,
        -0.17559880018234253,
        0.14041408896446228,
        -0.20330926775932312,
        0.1609306037425995,
        -0.2379285842180252,
        -0.105638787150383,
        -0.1450195461511612,
        0.17958498001098633,
        -0.1374560445547104,
        -0.07542292773723602,
        -0.13796617090702057,
        -0.17351755499839783,
        0.2723417580127716,
        0.07827076315879822,
        -0.2912808358669281,
        -0.1828058362007141,
        -0.06460250914096832,
        -0.16698189079761505,
        -0.2425021380186081,
        -0.05206197500228882,
        -0.2572464048862457,
        0.26223495602607727,
        0.0039637088775634766,
        -0.2504390478134155,
        -0.027191579341888428,
        0.1295531690120697,
        -0.19533878564834595,
        0.07329794764518738,
        0.2453610599040985,
        -0.23505960404872894,
        0.23430606722831726,
        0.122385174036026,
        -0.16561584174633026,
        0.03338785097002983,
        0.20056578516960144,
        -0.2949809432029724,
        -0.22202980518341064,
        0.1385626196861267,
        -0.33570432662963867,
        -0.2515644431114197,
        -0.24054093658924103,
        0.3173234462738037,
        0.2702713906764984,
        0.12207026779651642,
        0.19703291356563568,
        -0.21774058043956757,
        0.14855867624282837,
        0.051454346626996994,
        0.17332330346107483,
        0.1696782410144806,
        -0.3180431127548218,
        0.056025225669145584,
        0.06037379056215286,
        0.30418655276298523,
        0.12134689837694168,
        -0.1863406002521515,
        -0.07041305303573608,
        0.27342984080314636,
        0.038601696491241455,
        0.19666410982608795,
        -0.10074067115783691,
        -0.21260465681552887,
        -0.0814877450466156,
        0.09142041206359863,
        0.024040311574935913,
        -0.041217535734176636,
        -0.16906535625457764,
        -0.16099447011947632,
        -0.19542187452316284,
        0.06865382194519043,
        0.10273991525173187,
        0.04774139076471329,
        0.0994337946176529,
        -0.1514795571565628,
        0.265088826417923,
        -0.13630233705043793,
        0.06003211438655853,
        -0.22867926955223083,
        -0.08253806829452515,
        0.05488637462258339,
        0.09026625752449036,
        0.12341263145208359,
        0.07408123463392258,
        -0.01875412091612816,
        -0.008530408143997192,
        0.06567123532295227,
        0.07599139213562012,
        0.1034640371799469,
        -0.03573635220527649,
        0.0568779893219471,
        -0.28510865569114685,
        -0.16687867045402527,
        0.011728256940841675,
        0.14363153278827667,
        0.15006214380264282,
        -0.28559067845344543,
        -0.019488275051116943,
        -0.24430721998214722,
        0.10739334672689438,
        0.08571740984916687,
        0.03868965432047844,
        -0.1516578495502472,
        -0.09937742352485657,
        0.23745137453079224,
        -0.103092722594738,
        0.007023624610155821,
        -0.2647363543510437,
        0.16505064070224762,
        -0.003663234878331423,
        -0.2562721073627472,
        0.11964955925941467,
        -0.18821513652801514,
        0.02564276196062565,
        -0.09027329832315445,
        -0.09770692884922028,
        -0.1403084248304367,
        0.18404078483581543,
        -0.0003027915954589844,
        0.18927080929279327,
        -0.11313754320144653,
        0.07291880249977112,
        -0.2855145335197449,
        -0.10992537438869476,
        -0.22189457714557648,
        0.1162872314453125,
        -0.07370566576719284,
        -0.16837839782238007,
        -0.11622516810894012,
        0.26892271637916565,
        -0.11642774939537048,
        -0.18081684410572052,
        0.2642652690410614,
        -0.24664068222045898,
        0.05833180621266365,
        -0.24031957983970642,
        0.03648599982261658,
        -0.10946919023990631,
        -0.004263967275619507,
        0.1754390001296997,
        0.1673862487077713,
        0.17864273488521576,
        0.1764729917049408,
        -0.26832911372184753,
        -0.16036614775657654,
        0.23808416724205017,
        -0.14086611568927765,
        -0.2859715223312378,
        -0.30581796169281006,
        0.06387987732887268,
        -0.022680819034576416,
        -0.1723451018333435,
        0.1258731186389923,
        -0.21895051002502441,
        -0.22329285740852356,
        -0.2948347330093384,
        0.11380291730165482,
        -0.07405468821525574,
        0.16910913586616516,
        -0.3041493594646454,
        0.047674208879470825,
        -0.19814865291118622,
        -0.2793920040130615,
        0.1961611956357956,
        -0.19665643572807312,
        -0.006305553950369358,
        -0.316758394241333,
        0.11638802289962769,
        0.026913126930594444,
        0.008370324037969112,
        -0.14303730428218842,
        -0.0051413243636488914,
        0.15122298896312714,
        0.21032851934432983,
        -0.032671645283699036,
        0.14965763688087463,
        -0.025131771340966225,
        -0.08337388932704926,
        -0.08455290645360947,
        0.08818742632865906,
        -0.0612817220389843,
        -0.051227159798145294,
        -0.16834992170333862,
        0.1986766904592514,
        -0.06995278596878052,
        -0.052604883909225464,
        -0.10647013783454895,
        0.19487085938453674,
        -0.1154031828045845,
        0.2212720811367035,
        0.1140282079577446,
        -0.07064323127269745,
        0.07842355966567993,
        -0.10517720878124237,
        0.21133455634117126,
        -0.3661424219608307,
        -0.2626705765724182,
        0.10934685915708542,
        -0.10550431907176971,
        -0.05488741770386696,
        -0.1494629830121994,
        -0.07594014704227448,
        0.2362128496170044,
        0.08326047658920288,
        -0.03814024478197098,
        0.17813552916049957,
        -0.08567969501018524,
        0.23310300707817078,
        0.1463560312986374,
        0.17999407649040222,
        0.22734537720680237,
        0.16654247045516968,
        0.04275935888290405,
        -0.09234130382537842,
        -0.016162455081939697,
        0.21615871787071228,
        -0.1403968632221222,
        -0.05826519429683685,
        -0.08498996496200562,
        -0.2159813642501831,
        0.024526327848434448,
        -0.0003482997417449951,
        -0.04774678871035576,
        -0.025224745273590088,
        -0.2032034993171692,
        -0.07237355411052704,
        -0.07138026505708694,
        -0.16329561173915863,
        -0.017785632982850075,
        -0.14111362397670746,
        0.029295017942786217,
        0.08907075971364975,
        0.15210440754890442,
        -0.09759242087602615,
        0.20830856263637543,
        0.07220959663391113,
        0.15035662055015564,
        0.00543235894292593,
        -0.06384079903364182,
        0.30399879813194275,
        -0.22570602595806122,
        -0.11892437189817429,
        -0.2712717652320862,
        0.17131537199020386,
        -0.29220327734947205,
        -0.32568663358688354,
        -0.1725965142250061,
        -0.20791678130626678,
        0.25100383162498474,
        0.17496594786643982,
        0.2634962499141693,
        -0.2754635214805603,
        -0.125563845038414,
        -0.18693220615386963,
        0.1761195957660675,
        -0.25143301486968994,
        -0.19088831543922424,
        -0.10692314803600311,
        -0.24943383038043976,
        0.20229306817054749,
        0.020374208688735962,
        -0.2890791893005371,
        0.08062911778688431,
        -0.040974076837301254,
        -0.21225130558013916,
        -0.25983691215515137,
        -0.06343121826648712,
        0.012004703283309937,
        -0.2117277979850769,
        0.06888241320848465,
        0.2835785150527954,
        -0.20994815230369568,
        0.20356148481369019,
        -0.038805603981018066,
        0.0017962544225156307,
        -0.12584954500198364,
        -0.3034551441669464,
        0.08674871921539307,
        -0.033983200788497925,
        0.13488328456878662,
        -0.184234619140625,
        -0.08108288049697876,
        -0.08653098344802856,
        0.17441728711128235,
        0.08378750830888748,
        -0.21036988496780396,
        -0.2251105010509491,
        -0.2345714420080185,
        -0.17803066968917847,
        -0.11695459485054016,
        0.30217280983924866,
        -0.0475974977016449,
        0.05059707164764404,
        -0.18337486684322357,
        0.06384573131799698,
        -0.10874662548303604,
        -0.15056532621383667,
        0.1447639763355255,
        0.030685603618621826,
        -0.13668735325336456,
        -0.24096615612506866,
        -0.019696921110153198,
        0.2875131666660309,
        0.23409000039100647,
        0.003808647394180298,
        0.08104848861694336,
        -0.22156399488449097,
        0.26712992787361145,
        -0.028494209051132202,
        -0.07245370745658875,
        -0.027095943689346313,
        -0.05862158536911011,
        0.1517084538936615,
        -0.22712990641593933,
        -0.09620943665504456,
        -0.24176593124866486,
        0.26554134488105774,
        -0.06511913239955902,
        -0.21059538424015045,
        -0.012057274580001831,
        -0.2352772057056427,
        -0.2852244973182678,
        -0.23146618902683258,
        -0.20068787038326263,
        -0.1472296565771103,
        0.13138218224048615,
        0.2117626667022705,
        -0.21926553547382355,
        0.12553049623966217,
        0.11150272190570831,
        -0.1881786584854126,
        0.2810618281364441,
        0.07793491333723068,
        -0.1763378381729126,
        0.1175900548696518,
        -0.27731767296791077,
        0.13818946480751038,
        -0.19218824803829193,
        0.23696592450141907,
        0.08958162367343903,
        0.47200101613998413,
        0.26269131898880005,
        0.1101926639676094,
        0.31381532549858093,
        0.225312739610672,
        0.14125624299049377,
        -0.1319483071565628,
        -0.18948006629943848,
        -0.19017811119556427,
        0.2706685960292816,
        0.21194760501384735,
        -0.20947211980819702,
        0.14177942276000977,
        -0.271325945854187,
        0.1520819216966629,
        -0.06624346226453781,
        -0.2750943601131439,
        0.10474743694067001,
        -0.1976694017648697,
        -0.17838016152381897,
        -0.21240940690040588,
        -0.13613875210285187,
        -0.24958287179470062,
        0.12380722165107727,
        0.09672681242227554,
        0.19465862214565277,
        -0.12208668887615204,
        -0.10244303941726685,
        0.23016370832920074,
        0.23602595925331116,
        -0.2083825021982193,
        0.23564881086349487,
        -0.26778289675712585,
        -0.13437607884407043,
        -0.2021377682685852,
        -0.0982452929019928,
        0.13764408230781555,
        0.2073170244693756,
        0.01568738929927349,
        -0.17896580696105957,
        0.1338977813720703,
        -0.10549716651439667,
        -0.18400195240974426,
        -0.09906165301799774,
        -0.2525354027748108,
        0.25601181387901306,
        -0.032285433262586594,
        0.18814650177955627,
        -0.1092197448015213,
        0.1387598216533661,
        0.13264137506484985,
        -0.2562143802642822,
        0.08337542414665222,
        -0.09809833765029907,
        -0.05133897438645363,
        0.2340928018093109,
        -0.11212155967950821,
        0.19066904485225677,
        -0.16312944889068604,
        0.21815583109855652,
        0.013905942440032959,
        -0.14509591460227966,
        0.13571123778820038,
        -0.18521177768707275,
        -0.15741099417209625,
        -0.11859141290187836,
        0.06176212430000305,
        0.17678192257881165,
        0.0640479326248169,
        0.12988552451133728,
        0.1636638045310974,
        0.07634252309799194,
        0.08456883579492569,
        -0.22062097489833832,
        -0.22449927031993866,
        0.08100628852844238,
        0.22436174750328064,
        -0.2125328779220581,
        -0.14077486097812653,
        0.01086814422160387,
        -0.20186284184455872,
        -0.11772554367780685,
        -0.17602504789829254,
        0.11211051791906357,
        0.12935368716716766,
        -0.1554069072008133,
        -0.28288915753364563,
        0.1761743426322937,
        0.03700941428542137,
        -0.3590444326400757,
        0.13792653381824493,
        -0.251831591129303,
        0.18003642559051514,
        0.05031538009643555,
        -0.1852176934480667,
        -0.30128562450408936,
        -0.2184819132089615,
        0.1448219120502472,
        0.15812182426452637,
        -0.1537482887506485,
        -0.10701112449169159,
        -0.01676243543624878,
        0.03455943614244461,
        -0.17214332520961761,
        0.1334792971611023,
        -0.1805233359336853,
        0.2780812978744507,
        -0.04829564690589905,
        0.020106226205825806,
        -0.16698335111141205,
        0.054924704134464264,
        0.16455510258674622,
        0.2380940020084381,
        -0.36832791566848755,
        -0.27930402755737305,
        -0.18017655611038208,
        0.21337032318115234,
        -0.23143330216407776,
        0.04066155478358269,
        0.00519406795501709,
        -0.20077656209468842,
        -0.25909537076950073,
        -0.30067044496536255,
        -0.04358816146850586,
        0.13156497478485107,
        0.26921966671943665,
        -0.00026796985184773803,
        -0.057153698056936264,
        0.07557102292776108,
        0.020180314779281616,
        0.1933828890323639,
        -0.15679262578487396,
        -0.084754079580307,
        0.164534330368042,
        0.13541804254055023,
        -0.030691593885421753,
        0.10921406000852585,
        0.019950896501541138,
        -0.13457024097442627,
        0.1995876133441925,
        -0.24211668968200684,
        0.20865246653556824,
        0.15151000022888184,
        -0.07403197139501572,
        0.22912801802158356,
        0.008112370036542416,
        0.15198449790477753,
        0.10420320928096771,
        -0.14115144312381744,
        -0.07062827050685883,
        -0.04625646397471428,
        0.13641159236431122,
        0.031054796651005745,
        -0.09294474869966507,
        -0.11293470114469528,
        -0.2686612010002136,
        0.06043286621570587,
        0.010224463418126106,
        0.07870352268218994,
        0.11367101967334747,
        -0.023243408650159836,
        0.22120320796966553,
        -0.11605318635702133,
        0.24678422510623932,
        0.02519705891609192,
        -0.06991168856620789,
        0.29433584213256836,
        0.06383365392684937,
        -0.24512341618537903,
        -0.16137275099754333,
        0.11817914992570877,
        0.11300095915794373,
        0.15387603640556335,
        0.13425379991531372,
        0.10522118955850601,
        0.08736351132392883,
        0.2140684425830841,
        0.12012387067079544,
        -0.16143293678760529,
        -0.16545042395591736,
        0.09468717873096466,
        0.07180594652891159,
        -0.039552364498376846,
        0.2135598510503769,
        -0.1324988454580307,
        0.2112201303243637,
        0.17708046734333038,
        -0.1625823676586151,
        -0.1727532148361206,
        -0.2780125141143799,
        -0.23162128031253815,
        -0.1531294286251068,
        0.0988977774977684,
        -0.2592008709907532,
        -0.1717652976512909,
        0.019781440496444702,
        0.007648557424545288,
        -0.02690526843070984,
        0.033110760152339935,
        -0.2545623183250427,
        -0.27245479822158813,
        -0.19083809852600098,
        0.1269347071647644,
        0.1972949206829071,
        -0.12350426614284515,
        -0.28638172149658203,
        0.045163288712501526,
        0.0965069904923439,
        -0.22083961963653564,
        0.039008691906929016,
        0.08662049472332001,
        -0.3736126720905304,
        0.14517256617546082,
        -0.24985137581825256,
        -0.036457572132349014,
        -0.33353322744369507,
        0.11180749535560608,
        -0.027141345664858818,
        0.08449242264032364,
        0.14820396900177002,
        -0.12465030699968338,
        -0.2860742509365082,
        -0.015286885201931,
        0.24302777647972107,
        0.061731792986392975,
        -0.11916903406381607,
        0.26021161675453186,
        -0.2574291229248047,
        0.03950408101081848,
        0.1706947684288025,
        -0.18598046898841858,
        -0.07987348735332489,
        0.17473390698432922,
        0.30245527625083923,
        -0.17537224292755127,
        -0.05402487516403198,
        0.06644868850708008,
        -0.3060479760169983,
        0.0887378454208374,
        -0.3013518154621124,
        -0.21861666440963745,
        -0.3303970396518707,
        -0.0462927520275116,
        0.0052450671792030334,
        -0.03827212378382683,
        0.10953912138938904,
        0.22414591908454895,
        -0.06419648230075836,
        -0.03016454353928566,
        0.23544025421142578,
        0.21617481112480164,
        0.03489789366722107,
        -0.06313340365886688,
        -0.1515233814716339,
        -0.041187699884176254,
        0.23109036684036255,
        0.0641837865114212,
        -0.21408304572105408,
        -0.2653084397315979,
        -0.06402814388275146,
        0.1542498767375946,
        -0.01564297080039978
      ]
    },
    {
      "activation": "rectified",
      "architecture": "dense",
      "bias": [
        0.06022651121020317,
        0.2779540419578552,
        -0.043225228786468506,
        -1.4971089363098145,
        0.802943229675293,
        0.050806380808353424,
        -0.018642259761691093,
        -0.00817729439586401,
        0.7384636402130127,
        -0.12762804329395294,
        -1.3753442764282227,
        0.4838706851005554,
        0.5318665504455566,
        0.2217530906200409,
        0.7730979323387146,
        -1.353179693222046
      ],
      "weights": [
        -9.16724967956543,
        0.9878681302070618,
        -1.393415093421936,
        -3.000656843185425,
        -0.8608720898628235,
        -0.37274569272994995,
        0.9840528964996338,
        -1.3365111351013184,
        -1.297593355178833,
        -1.4359997510910034,
        0.2090207189321518,
        -0.006892233155667782,
        -1.546248435974121,
        0.8910315036773682,
        -0.24959434568881989,
        -0.21567870676517487,
        -1.3673322200775146,
        -1.874810814857483,
        -0.4030354917049408,
        -0.06632823497056961,
        0.8225141763687134,
        -3.8912391662597656,
        -2.428802251815796,
        0.4514431357383728,
        -4.675338268280029,
        -0.0645684227347374,
        -0.37833085656166077,
        -0.8141960501670837,
        -6.330902576446533,
        0.7554243803024292,
        -2.3928945064544678,
        -0.2378871887922287,
        0.3214759826660156,
        -2.0454938411712646,
        -0.32192981243133545,
        -1.2520068883895874,
        -0.6343310475349426,
        -0.20828045904636383,
        -3.404233455657959,
        0.39058202505111694,
        0.6882972121238708,
        -0.7406468987464905,
        0.23454317450523376,
        0.6297845840454102,
        1.0227607488632202,
        -0.6854735016822815,
        -1.2574667930603027,
        -2.284397840499878,
        0.28459087014198303,
        0.04000161588191986,
        0.26192694902420044,
        0.517589271068573,
        0.4453696608543396,
        -0.5665403604507446,
        -0.31694114208221436,
        -0.2654503583908081,
        -0.22167089581489563,
        -0.17246729135513306,
        0.19643434882164001,
        -0.2027904987335205,
        0.5643665790557861,
        0.14090301096439362,
        -0.7363824844360352,
        0.008218370378017426,
        -5.19246244430542,
        -0.13986961543560028,
        -3.1391708850860596,
        -0.63701331615448,
        -0.09129256010055542,
        -1.458845853805542,
        -0.4197622835636139,
        0.21243099868297577,
        -9.2200345993042,
        -4.295664310455322,
        -0.05151022970676422,
        -0.41558781266212463,
        -13.9329833984375,
        0.6902374029159546,
        -1.8053066730499268,
        -0.4083009362220764,
        0.16846688091754913,
        -1.9576188325881958,
        0.07605564594268799,
        -0.02559891901910305,
        0.04660199582576752,
        -14.60188102722168,
        -2.8170745372772217,
        -12.67153549194336,
        0.11987229436635971,
        -0.43101710081100464,
        0.007908042520284653,
        -0.16521413624286652,
        -0.06438042968511581,
        -0.05020396038889885,
        -2.9676403999328613,
        -0.07743098586797714,
        0.00480132969096303,
        -13.118134498596191,
        0.08089759200811386,
        -0.0681673139333725,
        0.4452667534351349,
        -0.5261293649673462,
        -4.042525291442871,
        -15.665575981140137,
        0.09122038632631302,
        0.2583406865596771,
        -0.22925516963005066,
        0.5670776963233948,
        0.46075302362442017,
        -7.1463727951049805,
        -2.556894063949585,
        -0.3471922278404236,
        -2.364320993423462,
        0.33123183250427246,
        -6.238207817077637,
        -21.83143424987793,
        -7.322174072265625,
        1.0043847560882568,
        0.33766627311706543,
        -3.2147974967956543,
        -0.08011945337057114,
        -3.316154718399048,
        -0.06955936551094055,
        0.7395962476730347,
        -3.9104926586151123,
        0.04921388626098633,
        0.5832756161689758,
        -0.0008313546422868967,
        -3.4613430500030518,
        -0.8175439238548279,
        -1.0383880138397217,
        -0.17345786094665527,
        -0.8959318995475769,
        -5.737592697143555,
        -1.8016529083251953,
        -0.16992197930812836,
        -12.228641510009766,
        -1.4036661386489868,
        -0.2597876191139221,
        -1.6344081163406372,
        -4.642452716827393,
        1.620744228363037,
        -8.91840648651123,
        -0.18915311992168427,
        0.10185714811086655,
        -0.4873811900615692,
        -2.3394062519073486,
        0.2973896563053131,
        -0.14058959484100342,
        -1.1792051792144775,
        -0.21345295011997223,
        -2.5529101549182087e-05,
        -10.731072425842285,
        -1.8429547548294067,
        0.2222200185060501,
        -0.3603522479534149,
        -2.6778724193573,
        -3.5831291675567627,
        -0.7551757097244263,
        -0.016160883009433746,
        -0.5764585733413696,
        -0.2860487699508667,
        0.015069439075887203,
        0.3380461037158966,
        0.2572908103466034,
        -1.5022368431091309,
        0.4536224901676178,
        0.3013037145137787,
        -1.3278652429580688,
        -0.7088775038719177,
        0.08180734515190125,
        -0.25721126794815063,
        -2.221099376678467,
        0.09892847388982773,
        -2.040987014770508,
        -0.04518057033419609,
        -0.5063782334327698,
        -0.7911307215690613,
        -3.1391327381134033,
        -9.370765686035156,
        -3.216451644897461,
        2.1127030849456787,
        -1.2303324937820435,
        -2.102001428604126,
        0.2701440751552582,
        -1.7826282978057861,
        -0.21381355822086334,
        1.2213035821914673,
        -0.2534678280353546,
        -0.6853364706039429,
        1.3275803327560425,
        -0.21999086439609528,
        -4.336015224456787,
        0.3790033161640167,
        -0.8482847213745117,
        -1.0144169330596924,
        -1.695859670639038,
        -1.891597032546997,
        0.3605985939502716,
        -0.40271538496017456,
        -5.15030574798584,
        -0.12000110745429993,
        0.04457162320613861,
        0.03632707521319389,
        -4.805469512939453,
        0.9552022814750671,
        -1.3614909648895264,
        -0.18283237516880035,
        0.16167624294757843,
        -1.0704156160354614,
        -0.7482584118843079,
        -1.659278154373169,
        -0.5731416344642639,
        -0.10431990027427673,
        -3.1241986751556396,
        -1.0164963006973267,
        -0.04658493399620056,
        0.06275738775730133,
        0.2805630564689636,
        0.49491772055625916,
        0.3117007911205292,
        -0.738942563533783,
        -0.16873253881931305,
        -0.24654780328273773,
        0.06200338527560234,
        -2.9427602291107178,
        -0.17438825964927673,
        -0.7999264597892761,
        0.10037264972925186,
        1.5080591440200806,
        -3.617575168609619,
        -16.84016990661621,
        -0.06081732362508774,
        -1.1357985734939575,
        -0.41511932015419006,
        0.8929086327552795,
        0.6449863910675049,
        -0.5239860415458679,
        -0.013457602821290493,
        -0.33732813596725464,
        -0.06627106666564941,
        -1.7061883211135864,
        0.040422238409519196,
        0.6164980530738831,
        0.3424748480319977,
        0.7581316232681274,
        -2.178396701812744,
        0.4970712661743164,
        0.0334959477186203,
        0.400753915309906,
        -0.14050635695457458,
        0.08926399797201157,
        -0.10988131165504456,
        0.25628650188446045,
        -1.185469627380371,
        -0.4304509460926056
      ]
    },
    {
      "activation": "rectified",
      "architecture": "dense",
      "bias": [
        -0.004834847990423441,
        -0.022753721103072166,
        -0.0016523865051567554,
        -0.09551887959241867,
        -0.004443651996552944,
        -0.003466187510639429,
        -0.005601702723652124,
        0.0,
        -0.003525337902829051,
        -0.03388908505439758,
        -0.04028570279479027,
        -0.036533743143081665,
        -0.008522632531821728,
        -0.06850339472293854,
        -0.07077152281999588,
        -0.04782620817422867,
        -0.029530547559261322,
        -0.09196511656045914,
        -0.11532324552536011,
        -0.0559544563293457,
        -0.028387820348143578,
        -0.04709669575095177,
        -0.04598886892199516,
        -0.006882022600620985,
        -0.08038479089736938,
        -0.03277675807476044,
        -0.07981566339731216,
        -0.02134738117456436,
        -0.04670918360352516,
        -0.008156747557222843,
        -0.008086000569164753,
        -0.00042041836422868073
      ],
      "weights": [
        -0.023496976122260094,
        0.06248379871249199,
        -0.1510045975446701,
        0.14534220099449158,
        0.08415871858596802,
        -0.20620156824588776,
        -0.01674601435661316,
        -0.2359074503183365,
        -0.1078069657087326,
        0.13775546848773956,
        0.24528135359287262,
        -0.047732505947351456,
        -0.05142596736550331,
        -0.10800275206565857,
        0.21816140413284302,
        -0.10426531732082367,
        0.21521127223968506,
        -0.28872454166412354,
        0.062053803354501724,
        0.31181275844573975,
        -0.07634714990854263,
        -0.03855016082525253,
        -0.23124681413173676,
        -0.05040452629327774,
        0.06255466490983963,
        -0.07848075032234192,
        -0.17318671941757202,
        -0.018044136464595795,
        0.2810412049293518,
        -0.07480821013450623,
        -0.02228490822017193,
        -0.28831273317337036,
        0.02343323826789856,
        0.21060523390769958,
        -0.005024499725550413,
        -0.14398908615112305,
        0.295600563287735,
        0.07117027044296265,
        0.26472780108451843,
        0.1666414737701416,
        -0.22709470987319946,
        -0.291276216506958,
        -0.061487942934036255,
        -0.050139013677835464,
        -0.2798427641391754,
        0.19411888718605042,
        -0.01116224192082882,
        -0.2120209038257599,
        -0.08278564363718033,
        -0.13309091329574585,
        -0.1814037710428238,
        -0.13235892355442047,
        -0.07531890273094177,
        -0.006993905641138554,
        -0.10276730358600616,
        -0.19975808262825012,
        -0.20592868328094482,
        0.2229149341583252,
        0.03546231612563133,
        0.2007615715265274,
        -0.03896075859665871,
        0.21021768450737,
        0.21736261248588562,
        -0.05529487133026123,
        -0.23521770536899567,
        0.14449942111968994,
        -0.011431107297539711,
        0.1053955927491188,
        -0.1734631061553955,
        -0.018613634631037712,
        -0.2734801769256592,
        -0.1894238144159317,
        0.13891325891017914,
        0.05178375169634819,
        -0.17974145710468292,
        -0.06798610836267471,
        -0.32362255454063416,
        0.0682356059551239,
        0.2576484978199005,
        0.11243104189634323,
        -0.11562759429216385,
        0.3084690570831299,
        -0.07199671864509583,
        0.2955290675163269,
        -0.22363640367984772,
        -0.024736689403653145,
        -0.05677115172147751,
        0.019471874460577965,
        0.002970990724861622,
        0.1464957594871521,
        -0.17972680926322937,
        -0.15628717839717865,
        -0.17382611334323883,
        -0.014939854852855206,
        0.25635334849357605,
        0.23475946485996246,
        -0.015632539987564087,
        0.2557261884212494,
        -0.15820713341236115,
        -0.14186832308769226,
        -0.3023982644081116,
        -0.233860045671463,
        0.16573715209960938,
        -0.16991765797138214,
        0.15202166140079498,
        -0.20139871537685394,
        -0.023620247840881348,
        -0.18803325295448303,
        -0.23570410907268524,
        0.0010426640510559082,
        -0.24789486825466156,
        -0.11544625461101532,
        0.015402433462440968,
        0.20643064379692078,
        0.03733031824231148,
        0.04884347319602966,
        0.09007936716079712,
        -0.3161884546279907,
        -0.10456860065460205,
        0.09604081511497498,
        -0.24455921351909637,
        0.0031280415132641792,
        -0.25283804535865784,
        0.28747907280921936,
        -0.0016939432825893164,
        0.019938161596655846,
        0.17277733981609344,
        0.23723676800727844,
        0.021144872531294823,
        0.08800972253084183,
        -0.1590326577425003,
        -0.0421302393078804,
        -0.038231320679187775,
        -0.12291586399078369,
        0.2870925962924957,
        0.054245755076408386,
        0.1961243897676468,
        0.09720932692289352,
        0.06778328865766525,
        -0.0406416617333889,
        -0.24074266850948334,
        0.0602339506149292,
        0.05019422620534897,
        0.15313175320625305,
        0.1681288480758667,
        -0.09984978288412094,
        -0.26278313994407654,
        -0.2553611397743225,
        0.26570937037467957,
        -0.20548200607299805,
        -0.24066314101219177,
        0.1662241816520691,
        -0.23487132787704468,
        -0.043184343725442886,
        -0.12655378878116608,
        0.21291689574718475,
        -0.03630372881889343,
