{
  "input_sequences": [
    {
      "name": "tracks_loose202102NoIpCuts_absD0DescendingSort",
      "variables": [
        {
          "name": "z0RelativeToBeamspot",
          "offset": 0.0,
          "scale": 1.0
        },
        {
          "name": "log_pt",
          "offset": 0.0,
          "scale": 1.0
        },
        {
          "name": "d0",
          "offset": 0.0,
          "scale": 1.0
        },
        {
          "name": "deta",
          "offset": 0.0,
          "scale": 1.0
        },
        {
          "name": "dphi",
          "offset": 0.0,
          "scale": 1.0
        },
        {
          "name": "chiSquared",
          "offset": 0.0,
          "scale": 1.0
        },
        {
          "name": "numberDoF",
          "offset": 0.0,
          "scale": 1.0
        },
        {
          "name": "qOverP",
          "offset": 0.0,
          "scale": 1.0
        }
      ]
    }
  ],
  "inputs": [
    {
      "name": "btagging",
      "variables": [
        {
          "name": "eta",
          "offset": 0.0,
          "scale": 1.0
        },
        {
          "name": "log_pt",
          "offset": 0.0,
          "scale": 1.0
        }
      ]
    }
  ],
  "layers": [
    {
      "activation": "rectified",
      "architecture": "dense",
      "bias": [
        -1.5864171981811523,
        -1.3399198055267334,
        0.8191392421722412,
        0.9549642205238342,
        -0.5174137949943542,
        0.9958029389381409,
        0.7717768549919128,
        -1.335585594177246,
        -1.5488115549087524,
        1.5726324319839478,
        -1.4541393518447876,
        0.7812754511833191,
        0.48908063769340515,
        -0.02986576035618782,
        0.7393258810043335,
        0.9054003953933716
      ],
      "weights": [
        -0.14560353755950928,
        0.4993707239627838,
        0.007088900078088045,
        -2.0716395378112793,
        -1.2209299802780151,
        -0.017098790034651756,
        -0.03647644445300102,
        -0.4462129771709442,
        -0.027095196768641472,
        0.6416105031967163,
        0.14430826902389526,
        -1.243423342704773,
        -0.8287732601165771,
        -0.016843991354107857,
        -0.3524131774902344,
        -0.003131074132397771,
        0.10732445865869522,
        -0.2606310546398163,
        -0.9864607453346252,
        -0.903758704662323,
        1.1864256858825684,
        0.15719904005527496,
        -1.4134219884872437,
        -0.0040476215071976185,
        0.1842622309923172,
        -0.7167341709136963,
        0.066740483045578,
        1.9037078619003296,
        1.0615406036376953,
        0.005213411524891853,
        0.006250769831240177,
        0.3860047161579132,
        -0.07537779211997986,
        -0.2993309497833252,
        0.35585471987724304,
        0.37265437841415405,
        0.17517812550067902,
        -0.0018139248713850975,
        -0.30622726678848267,
        -0.13415125012397766,
        -0.3210030794143677,
        -0.8284544944763184,
        -0.07131429761648178,
        1.1902512311935425,
        1.0224305391311646,
        0.0037787477485835552,
        -0.014150172472000122,
        0.7841821908950806,
        0.04179251566529274,
        -0.5877046585083008,
        2.178913116455078,
        0.8780806660652161,
        0.25019657611846924,
        -0.03546774014830589,
        -0.04768407344818115,
        1.3864376544952393,
        -0.005987776909023523,
        -0.1360698640346527,
        0.7452712059020996,
        -0.2641526758670807,
        -0.27447769045829773,
        -0.6152198314666748,
        -0.16220882534980774,
        -0.9400281310081482,
        -0.12196202576160431,
        0.5383145213127136,
        -0.09080953150987625,
        -2.1475162506103516,
        -1.1724895238876343,
        -0.0028436940629035234,
        0.03381020203232765,
        -0.9035659432411194,
        0.00046129687689244747,
        -0.21096563339233398,
        -0.3759379982948303,
        -5.035330295562744,
        -3.344346284866333,
        -0.013973038643598557,
        -0.0023710329551249743,
        0.5936901569366455,
        0.1328027993440628,
        0.6972934007644653,
        -0.07080259174108505,
        -2.09798264503479,
        -1.3483744859695435,
        -0.014869398437440395,
        -0.00528384605422616,
        -0.18876107037067413,
        -0.21062228083610535,
        -0.9367364645004272,
        0.19704560935497284,
        2.236600875854492,
        1.1327828168869019,
        -0.007045241538435221,
        -0.13007959723472595,
        0.8912842869758606,
        -0.04424304515123367,
        -0.4442662000656128,
        0.6087665557861328,
        0.9408243298530579,
        1.548985242843628,
        -0.054063912481069565,
        -0.024239350110292435,
        1.252992033958435,
        -0.0066289398819208145,
        0.7277877330780029,
        -1.672762393951416,
        -0.21149910986423492,
        -1.0590298175811768,
        0.06777694076299667,
        -0.9150137305259705,
        -1.182313323020935,
        0.0064800395630300045,
        0.20763838291168213,
        2.644139528274536,
        -0.7793214917182922,
        1.691353440284729,
        0.04432480409741402,
        -0.6911712884902954,
        0.9563412666320801,
        -0.14669649302959442,
        -0.3329412639141083,
        -1.351063847541809,
        2.0982601642608643,
        -0.22941717505455017,
        0.11533843725919724,
        -1.368077278137207,
        -0.577168881893158
      ]
    },
    {
      "activation": "rectified",
      "architecture": "dense",
      "bias": [
        0.0,
        -0.2866286039352417,
        -0.18830767273902893,
        -0.11786411702632904,
        0.0,
        -0.09306802600622177,
        0.0,
        0.0,
        -0.265200138092041,
        -0.005970239173620939,
        -0.26974430680274963,
        -0.09091184288263321,
        0.0,
        -0.10620860010385513,
        -0.0026910128071904182,
        0.0,
        -0.46274620294570923,
        0.0,
        -0.15972720086574554,
        0.0,
        -0.3851843476295471,
        -0.29591238498687744,
        0.0,
        -0.11321969330310822,
        -0.10684683173894882,
        0.0,
        -0.18650996685028076,
        0.0,
        0.0,
        -0.18156398832798004,
        -0.20431827008724213,
        -0.03078710474073887
      ],
      "weights": [
        0.026074975728988647,
        -0.3902943730354309,
        0.199580579996109,
        -0.026747016236186028,
        -0.3756861686706543,
        0.04614431783556938,
        0.06830784678459167,
        -0.006478169467300177,
        -0.08791539072990417,
        -0.06988313794136047,
        -0.16583815217018127,
        -0.03274882212281227,
        -0.21906164288520813,
        -0.3002060055732727,
        0.21665510535240173,
        -0.3136323094367981,
        0.2967863976955414,
        -0.04901226982474327,
        -0.3494511544704437,
        -0.09232783317565918,
        0.33875879645347595,
        -0.05998614430427551,
        0.13022272288799286,
        -0.025558605790138245,
        0.09483733773231506,
        -0.0546000599861145,
        0.2024923413991928,
        -0.04070517420768738,
        -0.2838391065597534,
        -0.07389192283153534,
        -0.05338084697723389,
        -0.3809362053871155,
        -0.43424591422080994,
        0.07544205337762833,
        -0.140590637922287,
        -0.12157255411148071,
        0.09470190852880478,
        -0.00783629808574915,
        0.2385084331035614,
        -0.24263593554496765,
        0.01989099569618702,
        -0.004052424803376198,
        0.2189575880765915,
        -0.02606852352619171,
        -0.23278279602527618,
        -0.16887536644935608,
        -0.09430330991744995,
        -0.012489338405430317,
        -0.6962881088256836,
        0.033698420971632004,
        0.18939098715782166,
        -0.39498046040534973,
        0.15958932042121887,
        -0.024150358512997627,
        -0.068990558385849,
        -0.360078364610672,
        -0.003385871648788452,
        -0.26027876138687134,
        -0.08841309696435928,
        -0.004264745395630598,
        -0.22076596319675446,
        -0.035645533353090286,
        -0.16580161452293396,
        -0.03935263678431511
      ]
    },
    {
      "activation": "rectified",
      "architecture": "dense",
      "bias": [
        -0.8031321167945862,
        -0.6626241207122803,
        -0.0921996533870697,
        0.6342934966087341,
        -0.6971940398216248,
        -0.4243223965167999,
        -1.0926870107650757,
        -0.014780968427658081,
        -1.345449447631836,
        -0.3177093267440796,
        -0.142643004655838,
        1.410413146018982,
        -1.553820013999939,
        0.36504700779914856,
        -0.2926485240459442,
        -0.6470540165901184
      ],
      "weights": [
        0.1948394477367401,
        0.01733405888080597,
        -0.5337284803390503,
        -0.23399990797042847,
        0.07217402756214142,
        -0.20165717601776123,
        -0.3306160867214203,
        0.053950823843479156,
        0.17238014936447144,
        -1.1561833620071411,
        0.0001321592862950638,
        -0.2396182268857956,
        -0.3906335234642029,
        -0.48056402802467346,
        -0.6935357451438904,
        -1.2363210916519165,
        -0.14314137399196625,
        0.28519535064697266,
        0.7332236170768738,
        0.6294462084770203,
        0.13906309008598328,
        -0.03288879618048668,
        0.19113604724407196,
        0.2578790485858917,
        -0.6388034224510193,
        -0.3665519058704376,
        -0.7238845229148865,
        0.40516340732574463,
        0.4106602966785431,
        0.850045919418335,
        1.0324987173080444,
        1.3470245599746704,
        -0.44874444603919983,
        -0.364836186170578,
        1.2129827737808228,
        0.2679596245288849,
        0.28233590722084045,
        0.180842787027359,
        0.2081923931837082,
        0.1795140653848648,
        0.028543198481202126,
        0.9094133377075195,
        -0.1958869844675064,
        0.3907897174358368,
        0.08481427282094955,
        0.37492531538009644,
        0.7471780776977539,
        0.6886737942695618,
        0.08248496055603027,
        -0.7640572190284729,
        0.491142213344574,
        -0.2826235592365265,
        0.7991224527359009,
        -0.35195809602737427,
        0.08322419226169586,
        0.0636603832244873,
        -0.1343419849872589,
        0.36859238147735596,
        -0.7977418303489685,
        -0.052247751504182816,
        0.13723306357860565,
        0.5720490217208862,
        0.6773721575737,
        1.61771559715271,
        -0.15447382628917694,
        0.09293560683727264,
        -0.6279139518737793,
        -0.22332943975925446,
        -0.5516531467437744,
        -0.2827250063419342,
        -0.05779358744621277,
        -0.06463836133480072,
        0.3227013051509857,
        -0.3977203667163849,
        0.1864970177412033,
        -0.6131987571716309,
        -0.40207329392433167,
        -0.22357365489006042,
        -0.3862040638923645,
        -0.6639173030853271,
        -0.5372222661972046,
        0.06889840215444565,
        0.1613074690103531,
        0.2525104582309723,
        0.017456484958529472,
        0.13797961175441742,
        -0.0568089634180069,
        0.4208281636238098,
        -0.2523544430732727,
        0.14798346161842346,
        -0.643581211566925,
        -0.3701268136501312,
        0.3388423025608063,
        -0.5156293511390686,
        -0.459126353263855,
        -0.5326980948448181,
        0.25902754068374634,
        -0.012755129486322403,
        -1.4614979028701782,
        -0.38504302501678467,
        -0.10321628302335739,
        -0.2674809992313385,
        -0.08012905716896057,
        -0.05527200177311897,
        -0.057363901287317276,
        -0.7133517265319824,
        0.3753233253955841,
        -0.4178354740142822,
        -0.1054750308394432,
        -0.20572321116924286,
        -0.3693254888057709,
        -0.12801110744476318,
        0.12831375002861023,
        -0.1551447957754135,
        0.22845007479190826,
        0.5128039121627808,
        -0.12430422008037567,
        -0.7057785391807556,
        0.4163276255130768,
        0.09970171004533768,
        -0.04707171395421028,
        0.4688212275505066,
        -0.2755529284477234,
        -0.32425326108932495,
        -0.05696890875697136,
        0.16857825219631195,
        0.4919603765010834,
        -0.1866457164287567,
        0.05766843259334564,
        -0.0006333712371997535,
        -0.2256220579147339,
        0.29092809557914734,
        -0.13692328333854675,
        0.02392985112965107,
        -0.11880236864089966,
        0.14945492148399353,
        0.11613185703754425,
        -0.29390421509742737,
        0.2493220418691635,
        -0.3250578045845032,
        0.020762266591191292,
        -0.036068789660930634,
        -0.30894026160240173,
        -0.6797040700912476,
        -0.5354973077774048,
        -0.30631551146507263,
        1.286496877670288,
        0.05368039384484291,
        0.23835934698581696,
        -0.5108859539031982,
        0.3492897152900696,
        -0.0317346416413784,
        -0.18738369643688202,
        0.9297824501991272,
        -0.22190649807453156,
        -0.30059733986854553,
        0.16621634364128113,
        0.6313068866729736,
        0.5511461496353149,
        -0.5788730978965759,
        -0.38164225220680237,
        -0.4658724069595337,
        -0.18463678658008575,
        0.018542690202593803,
        0.300485759973526,
        -0.18862289190292358,
        0.011182752437889576,
        -0.06649815291166306,
        -0.7462445497512817,
        0.17498792707920074,
        -0.24737489223480225,
        -0.10999815911054611,
        -0.04804741218686104,
        -0.14665952324867249,
        0.11572427302598953,
        0.0811883956193924,
        -0.15174594521522522,
        -0.09886341542005539,
        0.1622747778892517,
        -1.515260100364685,
        -0.08095066994428635,
        0.36384737491607666,
        -0.05363274738192558,
        -0.33382758498191833,
        -0.1674569696187973,
        1.221509575843811,
        -0.2829560935497284,
        0.2753632068634033,
        0.10613056272268295,
        0.3862805664539337,
        0.5312830805778503,
        0.6248242259025574,
        0.4667191505432129,
        0.08114896714687347,
        -0.14049892127513885,
        -1.1407498121261597,
        0.06145594269037247,
        -0.06555473804473877,
        -0.28844162821769714,
        0.04852642863988876,
        0.3646315634250641,
        -1.1525671482086182,
        0.19395749270915985,
        -0.18078118562698364,
        -0.12145065516233444,
        -0.46332305669784546,
        -0.5223396420478821,
        -0.937896192073822,
        -0.30513495206832886,
        0.2521374225616455,
        0.13077780604362488,
        0.12397807091474533,
        -0.20310376584529877,
        -0.2432456910610199,
        0.4522876441478729,
        0.11372216790914536,
        -0.3356468081474304,
        1.04063880443573,
        -0.07339682430028915,
        0.14898495376110077,
        -0.342803418636322,
        0.2032237946987152,
        0.5852934122085571,
        0.190646693110466,
        -1.236135482788086,
        -0.05895141139626503,
        -0.024613097310066223,
        -0.1378362625837326,
        -0.35925745964050293,
        0.29711535573005676,
        0.162749782204628,
        -0.2598474323749542,
        -0.7344488501548767,
        -0.49625375866889954,
        -0.07511766254901886,
        -0.5068559050559998,
        -0.6704310178756714,
        -0.6083228588104248,
        0.28389686346054077,
        -0.07800863683223724,
        0.3659418523311615,
        -0.03024829551577568,
        0.7702252864837646,
        -0.1260005384683609,
        -0.3911483585834503,
        -0.3165431618690491,
        0.45209383964538574,
        -0.06590146571397781,
        0.058417562395334244,
        -0.14665627479553223,
        -0.1351444274187088,
        -0.08804924041032791,
        0.2701690196990967,
        -0.0967409536242485,
        -0.04684337228536606,
        0.5616153478622437
      ]
    },
    {
      "activation": "rectified",
      "architecture": "dense",
      "bias": [
        -0.09513043612241745,
        -0.17012564837932587,
        -0.17260481417179108,
        -0.12102197110652924,
        -0.16621913015842438,
        -0.1422959715127945,
        -0.15153127908706665,
        -0.07857868820428848,
        -0.05468123406171799,
        -0.0035963987465947866,
        -0.1656397581100464,
        -0.14009878039360046,
        -0.14273592829704285,
        -0.09149715304374695,
        0.03208557888865471,
        -0.10566247254610062,
        0.34655728936195374,
        -0.2282075434923172,
        -0.0014214321272447705,
        -0.07342895865440369,
        -0.16442230343818665,
        -0.06260756403207779,
        -0.031655650585889816,
        -0.06910022348165512,
        -0.14838793873786926,
        -0.0672769546508789,
        -0.16849195957183838,
        -0.04574044048786163,
        -0.027165373787283897,
        -0.178396537899971,
        -0.09601069986820221,
        -0.20292054116725922
      ],
      "weights": [
        -0.052359312772750854,
        -0.25973251461982727,
        -0.07436395436525345,
        -0.3352891504764557,
        0.27336499094963074,
        -0.24598811566829681,
        0.29313722252845764,
        0.052014291286468506,
        -0.07011645287275314,
        0.1664031445980072,
        0.1650044471025467,
        0.019861547276377678,
        -0.05836199223995209,
        0.07444070279598236,
        0.07586255669593811,
        0.17642274498939514,
        -0.30080386996269226,
        -0.25849589705467224,
        -0.17607872188091278,
        0.30143114924430847,
        0.21922667324543,
        -0.3125145137310028,
        0.1191069483757019,
        -0.30102598667144775,
        0.026285050436854362,
        0.268630713224411,
        -0.12766750156879425,
        -0.09420055150985718,
        0.004474937915802002,
        0.17502807080745697,
        0.1689278930425644,
        0.0626375749707222,
        0.21751567721366882,
        0.18385936319828033,
        -0.14219774305820465,
        0.12363293021917343,
        0.1512250304222107,
        0.1870846450328827,
        0.2701781094074249,
        0.04392725229263306,
        -0.19558486342430115,
        0.21213452517986298,
        0.12334609031677246,
        -0.3148818910121918,
        0.013737380504608154,
        0.19449542462825775,
        0.04839826002717018,
        -0.15871962904930115,
        -0.04644780606031418,
        -0.09036175906658173,
        0.17037060856819153,
        -0.09554113447666168,
        -0.4225609302520752,
        -0.2479250133037567,
        -0.0818876326084137,
        -0.22018945217132568,
        0.05484912171959877,
        0.27775344252586365,
        0.16377322375774384,
        0.030846208333969116,
        -0.10163259506225586,
        -0.07500483840703964,
        0.15176142752170563,
        -0.2946932017803192,
        0.23916974663734436,
        -0.11177559942007065,
        0.03152357414364815,
        -0.2134239822626114,
        0.26225414872169495,
        -0.28051021695137024,
        0.03856140375137329,
        -0.12612716853618622,
        -0.355777770280838,
        0.06879177689552307,
        -0.3392784297466278,
        0.009818673133850098,
        0.28004327416419983,
        0.27571403980255127,
        0.2637646794319153,
        -0.08499468863010406,
        -0.4096336364746094,
        0.12558573484420776,
        -0.2921794354915619,
        -0.08178536593914032,
        0.1994478553533554,
        -0.12739433348178864,
        0.29571089148521423,
        -0.20399466156959534,
        0.07325051724910736,
        -0.26540252566337585,
        0.08015342801809311,
        -0.2513173818588257,
        -0.2563434839248657,
        -0.3359891176223755,
        0.13138523697853088,
        0.03369426727294922,
        0.17939656972885132,
        0.09055645018815994,
        -0.04126680642366409,
        -0.03780670464038849,
        0.19136187434196472,
        -0.3033076822757721,
        -0.00336378812789917,
        0.10041683912277222,
        -0.1306733340024948,
        -0.07310850918292999,
        -0.23758797347545624,
        -0.009149827994406223,
        0.2111288607120514,
        -0.03902581334114075,
        0.03130430728197098,
        0.005076318979263306,
        0.026113424450159073,
        -0.033234208822250366,
        -0.23530110716819763,
        0.11005252599716187,
        -0.036489780992269516,
        0.24243469536304474,
        -0.05588662624359131,
        -0.04679451882839203,
        -0.09469729661941528,
        0.24418196082115173,
        0.13355907797813416,
        0.10945209860801697,
        -0.21282824873924255,
        0.2441769391298294,
        -0.29295626282691956,
        -0.13093134760856628,
        -0.20028719305992126,
        0.14687880873680115,
        -0.30969753861427307,
        -0.18148022890090942,
        0.28246501088142395,
        0.1974373161792755,
        0.25238844752311707,
        -0.3027876913547516,
        -0.058426741510629654,
        0.06590959429740906,
        -0.27424582839012146,
        0.18829087913036346,
        -0.21063727140426636,
        0.20811669528484344,
        0.21862056851387024,
        -0.10960957407951355,
        -0.2870462238788605,
        -0.22557055950164795,
        -0.24081169068813324,
        -0.06472113728523254,
        -0.03660820052027702,
        0.1063421294093132,
        -0.14173278212547302,
        -0.26538997888565063,
        0.07613325864076614,
        -0.002308785915374756,
        -0.2934860289096832,
        -0.16647279262542725,
        0.07187432050704956,
        -0.026475220918655396,
        -0.2127784788608551,
        -0.06864936649799347,
        0.05454784631729126,
        0.030222659930586815,
        -0.3475188910961151,
        0.18352168798446655,
        -0.2377644032239914,
        0.020429853349924088,
        -0.15550972521305084,
        -0.2160801887512207,
        -0.20378704369068146,
        0.28159353137016296,
        0.10822504758834839,
        0.23565740883350372,
        -0.0628136396408081,
        -0.3179920017719269,
        -0.1670052856206894,
        -0.0016206800937652588,
        0.016888290643692017,
        0.04273819923400879,
        0.037527911365032196,
        -0.2439456582069397,
        -0.24123573303222656,
        -0.16115011274814606,
        0.304500013589859,
        -0.014904406853020191,
        0.04177248105406761,
        -0.16284853219985962,
        -0.19425147771835327,
        0.209579199552536,
        -0.1600932776927948,
        0.19735661149024963,
        0.22884629666805267,
        -0.22787144780158997,
        -0.2245696485042572,
        -0.09934729337692261,
        0.11301153898239136,
        0.15899409353733063,
        0.05602824687957764,
        -0.08163987100124359,
        -0.029959678649902344,
        -0.04178321361541748,
        -0.28221917152404785,
        0.18426409363746643,
        -0.23438824713230133,
        0.017543749883770943,
        -0.20345008373260498,
        0.010663785971701145,
        0.1744026243686676,
        -0.09110526740550995,
        -0.270767480134964,
        0.12890586256980896,
        -0.3312213122844696,
        0.121805340051651,
        0.1224418357014656,
        0.039283666759729385,
        0.30512145161628723,
        0.21564868092536926,
        -0.35254961252212524,
        0.256432443857193,
        -0.0612485446035862,
        0.2438633143901825,
        0.05282321572303772,
        -0.3298821449279785,
        -0.3076441287994385,
        -0.1554880440235138,
        -0.061945363879203796,
        0.21677474677562714,
        -0.010655397549271584,
        -0.2824017107486725,
        0.05454450845718384,
        0.039131589233875275,
        -0.22446802258491516,
        -0.05639149248600006,
        -0.1937970668077469,
        0.0017088055610656738,
        0.05386748164892197,
        -0.009256540797650814,
        -0.23684510588645935,
        0.23518683016300201,
        -0.2888404428958893,
        -0.03831169009208679,
        -0.09832240641117096,
        -0.16139093041419983,
        -0.1792600452899933,
        0.05771702527999878,
        0.09364024549722672,
        -0.17692117393016815,
        -0.06448256969451904,
        0.11955556273460388,
        -0.34134310483932495,
        -0.2585003972053528,
        -0.32613030076026917,
        -0.24796074628829956,
        0.23122480511665344,
        0.1408858746290207,
        -0.0067410580813884735,
        0.052503347396850586,
        -0.14731475710868835,
        0.07540227472782135,
        -0.03952746465802193,
        0.02671760320663452,
        -0.08984987437725067,
        -0.09994810819625854,
        0.22858121991157532,
        0.0034474432468414307,
        0.07444635033607483,
        -0.2927393317222595,
        0.0005998215056024492,
        -0.09871336817741394,
        0.035182803869247437,
        -0.11280333995819092,
        -0.20315968990325928,
        0.021120578050613403,
        -0.07889309525489807,
        -0.2840270698070526,
        -0.06943434476852417,
        -0.2860710024833679,
        -0.23239187896251678,
        0.22922906279563904,
        0.0728459358215332,
        0.07973209023475647,
        0.008096789009869099,
        -0.05409422516822815,
        0.10182136297225952,
        -0.1446784883737564,
        -0.1551869809627533,
        0.1354062557220459,
        0.06114205718040466,
        0.21058717370033264,
        -0.05372557044029236,
        -0.21660256385803223,
        -0.0035520668607205153,
        0.2315131574869156,
        -0.10366594791412354,
        0.17603081464767456,
        -0.10577179491519928,
        0.2809157073497772,
        0.021694611757993698,
        -0.20082898437976837,
        0.08188051730394363,
        0.18685995042324066,
        -0.28954583406448364,
        0.13018834590911865,
        0.30110427737236023,
        -0.2806010842323303,
        -0.1339738965034485,
        -0.06797812879085541,
        -0.16780394315719604,
        -0.02280774712562561,
        0.17158277332782745,
        -0.21817967295646667,
        -0.1718800812959671,
        -0.08155187964439392,
        -0.059243928641080856,
        -0.2542657256126404,
        -0.03191128373146057,
        0.020419776439666748,
        0.05335614085197449,
        -0.1602855622768402,
        0.02184944786131382,
        0.21662499010562897,
        0.0986628532409668,
        0.12085699290037155,
        -0.15645678341388702,
        -0.026724429801106453,
        0.22358450293540955,
        -0.008208785206079483,
        0.15432441234588623,
        -0.006487250328063965,
        0.09605792909860611,
        0.04723627492785454,
        0.15863023698329926,
        -0.15065810084342957,
        -0.20006972551345825,
        -0.2313414216041565,
        -0.13340266048908234,
        -0.2751370072364807,
        -0.34011685848236084,
        -0.2912944257259369,
        -0.33830368518829346,
        0.21453514695167542,
        -0.09355383366346359,
        -0.22908398509025574,
        0.295466810464859,
        -0.09567908197641373,
        0.07326463609933853,
        0.0851219892501831,
        -0.0064778560772538185,
        0.28683802485466003,
        0.1258925497531891,
        -0.2397933453321457,
        -0.05387837812304497,
        0.19973011314868927,
        0.27430686354637146,
        -0.40175580978393555,
        -0.2902899384498596,
        0.12425142526626587,
        -0.1726078987121582,
        -0.2594447433948517,
        0.2728937566280365,
        0.24407479166984558,
        -0.00708887679502368,
        0.17831632494926453,
        -0.15810748934745789,
        0.16919001936912537,
        -0.004891186952590942,
        0.22378584742546082,
        0.03741529583930969,
        0.24255570769309998,
        0.13222935795783997,
        -0.033051252365112305,
        -0.004998058080673218,
        -0.152235209941864,
        -0.06507942080497742,
        0.20849893987178802,
        -0.28576257824897766,
        -0.28986698389053345,
        -0.05884495750069618,
        -0.2552248239517212,
        -0.11189214885234833,
        0.01366490125656128,
        0.06477099657058716,
        -0.013403922319412231,
        -0.2918941378593445,
        -0.011083215475082397,
        -0.23026177287101746,
        -0.2664072811603546,
        -0.10805916041135788,
        -0.2950180470943451,
        0.28894010186195374,
        -0.24668258428573608,
        -0.14921598136425018,
        0.2989825904369354,
        -0.06300536543130875,
        0.10107649117708206,
        0.12954047322273254,
        -0.39440223574638367,
        -0.1312480866909027,
        0.08365397900342941,
        0.11934073269367218,
        -0.2944563031196594,
        0.14580529928207397,
        0.2086099088191986,
        0.032874926924705505,
        0.24436882138252258,
        0.05399071425199509,
        0.16696186363697052,
        0.18755388259887695,
        -0.09168847650289536,
        -0.30265259742736816,
        -0.020505249500274658,
        0.007715300656855106,
        0.1674770712852478,
        0.042667388916015625,
        -0.05410754308104515,
        -0.0763031616806984,
        -0.007836168631911278,
        -0.12124533951282501,
        0.10522643476724625,
        -0.31837019324302673,
        0.07623924314975739,
        0.008889347314834595,
        -0.042733822017908096,
        0.07384014129638672,
        0.16002991795539856,
        -0.28375691175460815,
        -0.11302664130926132,
        -0.027494456619024277,
        -0.3020530045032501,
        0.1615089774131775,
        0.10911811143159866,
        0.2053850144147873,
        -0.08433753252029419,
        -0.011056428775191307,
        -0.2648581862449646,
        0.10919909924268723,
        -0.000728905200958252,
        0.008908276446163654,
        -0.12422902882099152,
        -0.2801230251789093,
        -0.11306043714284897,
        0.06734946370124817,
        -0.16722337901592255,
        -0.27675819396972656,
        -0.2849682867527008,
        0.013019204139709473,
        -0.23282666504383087,
        -0.059966858476400375,
        -0.0827784612774849,
        0.1595970094203949,
        -0.20368708670139313,
        0.11837188154459,
        -0.048105061054229736,
        -0.06168606877326965,
        -0.1380217969417572,
        0.27924177050590515,
        0.10381224751472473,
        -0.06175154447555542,
        0.10579141974449158,
        -0.3011702299118042,
        -0.05815505608916283,
        -0.30253365635871887,
        -0.15342241525650024,
        -0.11332492530345917,
        0.2618521749973297,
        0.21533487737178802,
        0.1771174967288971,
        -0.0406055748462677,
        0.2852768003940582,
        -0.3319747745990753,
        -0.07261411845684052,
        0.09220200777053833,
        -0.042740821838378906,
        -0.5280615091323853,
        0.025624483823776245,
        -0.18633843958377838,
        0.11400967836380005,
        0.08365607261657715,
        0.09957528114318848,
        -0.19847677648067474,
        -0.16616202890872955,
        0.010244667530059814,
        0.07101466506719589,
        -0.12659738957881927,
        -0.3298269808292389,
        0.020920991897583008,
        0.15974348783493042,
        0.10316574573516846,
        0.2873810827732086,
        -0.28634458780288696,
        0.031387507915496826,
        0.11170873045921326,
        -0.2417060285806656,
        -0.11166848242282867,
        -0.2959004342556,
        0.008727144449949265,
        0.23025068640708923,
        0.03754982352256775,
        0.039534300565719604,
        0.10341725498437881,
        0.07983911037445068,
        0.10428590327501297,
        -0.26671817898750305,
        -0.015457481145858765,
        0.043055564165115356,
        -0.3425048589706421,
        -0.29291605949401855,
        -0.2309199571609497,
        0.28388145565986633,
        0.29436036944389343,
        -0.3245353400707245,
        -0.3297727108001709,
        0.09903597086668015,
        0.06352576613426208,
        0.14994347095489502,
        -0.13190044462680817,
        0.2171448916196823,
        0.28224143385887146,
        -0.011517016217112541,
        0.05519917607307434,
        0.03243711590766907,
        0.052585285156965256,
        0.14154326915740967,
        0.23346400260925293,
        -0.0037583475932478905,
        -0.30443933606147766,
        -0.054619353264570236,
        0.36832746863365173,
        0.10378697514533997,
        -0.5549923181533813,
        -0.15213315188884735,
        -0.05186875909566879,
        -0.15125678479671478,
        0.19982074201107025,
        -0.08414242416620255,
        -0.011627286672592163,
        -0.21656812727451324,
        -0.5814098119735718,
        0.09462067484855652,
        0.08635346591472626,
        0.24603185057640076,
        -0.1745421141386032,
        -0.11906912177801132,
        -0.22162006795406342,
        0.1156272441148758,
        0.15939730405807495,
        0.009427597746253014,
        -0.005872688721865416,
        0.04127534106373787,
        -0.23773053288459778,
        0.16685715317726135,
        -0.24265478551387787,
        -0.11565130949020386,
        -0.31114497780799866,
        0.014182515442371368,
        0.07741011679172516,
        0.16387930512428284,
        -0.2118120789527893,
        -0.07910571247339249,
        -0.1874653398990631,
        0.09234774112701416,
        -0.14158089458942413,
        -0.12552623450756073,
        0.10360486805438995,
        0.15269291400909424,
        -0.29302674531936646,
        -0.14419758319854736,
        0.13290053606033325,
        -0.297661691904068,
        0.08276567608118057,
        0.05269765853881836,
        -0.33829060196876526,
        0.09557601809501648,
        0.07221907377243042,
        0.21712729334831238,
        0.012463265098631382,
        0.04102637618780136,
        0.2006533443927765,
        0.27339667081832886,
        -0.02868407405912876,
        0.006924243178218603,
        0.27528437972068787,
        0.11332490295171738,
        -0.0366511344909668,
        0.2784958779811859,
        -0.13449637591838837,
        -0.03670208528637886,
        -0.09496428072452545,
        0.03788546845316887,
        -0.23039472103118896,
        -0.09880736470222473,
        0.025218335911631584,
        -0.2190961390733719,
        -0.26005131006240845,
        -0.17232342064380646,
        0.010849392972886562,
        0.05844908952713013,
        0.1560027003288269,
        0.20065389573574066,
        0.11820575594902039,
        -0.29872119426727295,
        -0.975790798664093,
        -0.00345417857170105,
        -0.33275091648101807,
        0.1431986391544342,
        0.27623382210731506,
        0.17774951457977295,
        0.07787903398275375,
        0.07458016276359558,
        0.2415473759174347,
        0.09462571144104004,
        -0.44842323660850525,
        0.07225075364112854,
        -0.26587724685668945,
        0.025263959541916847,
        0.22700604796409607,
        -0.23955759406089783,
        -0.0009898936841636896,
        0.06657826900482178,
        0.030126210302114487,
        0.04522823914885521,
        0.16046026349067688,
        -0.15462782979011536,
        0.2326647937297821,
        -0.058009251952171326,
        -0.3438880443572998,
        -0.27954208850860596,
        -0.22385725378990173,
        0.08678567409515381,
        0.025692440569400787,
        0.2334202378988266,
        0.04644298553466797,
        -0.2958657741546631,
        0.011563233099877834,
        0.20839402079582214,
        0.05634237825870514,
        0.17059439420700073,
        -0.015655040740966797,
        -0.3030604124069214,
        -0.15597431361675262,
        -0.03754204511642456,
        0.14406704902648926,
        -0.0400216281414032,
        -0.18085478246212006,
        -0.14493802189826965,
        0.05474314093589783,
        0.18813654780387878,
        0.25036266446113586,
        0.020708203315734863,
        0.02011393941938877,
        0.03869318217039108,
        -0.13658317923545837,
        -0.2182697206735611,
        0.012807577848434448,
        0.19481432437896729,
        0.055064015090465546,
        -0.21937748789787292,
        -0.35322046279907227,
        -0.15247304737567902,
        -0.16737814247608185,
        0.13448038697242737,
        0.09750867635011673,
        -0.044544003903865814,
        -0.18186472356319427,
        0.006080827675759792,
        0.04445662349462509,
        -0.047909557819366455,
        0.04502185061573982,
        0.19395795464515686,
        -0.1589401662349701,
        -0.20148704946041107,
        0.005092073697596788,
        0.24925759434700012,
        0.12159144878387451,
        -0.12480377405881882,
        0.0563063882291317,
        0.18200628459453583,
        0.22945871949195862,
        0.1814274787902832,
        0.016548842191696167,
        0.3034609854221344,
        0.1934470385313034,
        0.17175298929214478,
        -0.037071648985147476,
        -0.013367241248488426,
        0.044338881969451904,
        0.05477321147918701,
        -0.05467022582888603,
        0.15829920768737793,
        -0.35780996084213257,
        0.06652131676673889,
        -0.2254723161458969,
        0.25390949845314026,
        -0.13752369582653046,
        0.03722721338272095,
        -0.2595635950565338,
        0.24966205656528473,
        -0.2223988026380539,
        -0.07643698155879974,
        0.18781089782714844,
        -0.3001590073108673,
        -0.2881179451942444,
        0.003404379589483142,
        0.22154374420642853,
        0.06246001645922661,
        0.11243972182273865,
        0.06652423739433289,
        -0.3194003999233246,
        -0.2852727472782135,
        0.1474747657775879,
        0.039843231439590454,
        0.1709648072719574,
        -0.2644660770893097,
        -0.14507000148296356,
        0.28494003415107727,
        0.20487484335899353,
        0.2728320062160492,
        -0.10311180353164673,
        -0.2693127989768982,
        0.21162882447242737,
        -0.2229454517364502,
        -0.001181960105895996,
        0.08642879128456116,
        0.10440537333488464,
        -0.14178022742271423,
        -0.04344645142555237,
        -0.2782137393951416,
        -0.24232035875320435,
        -0.18340839445590973,
        -0.30513429641723633,
        0.11059975624084473,
        -0.23155519366264343,
        -0.3042098879814148,
        0.16600865125656128,
        -0.10049013793468475,
        0.06258001923561096,
        -0.07156550884246826,
        0.10544446110725403,
        -0.35666176676750183,
        -0.10724323242902756,
        0.14940650761127472,
        0.16308599710464478,
        -0.2892836928367615,
        0.05699995160102844,
        0.10127618908882141,
        -0.1978628933429718,
        0.07100918143987656,
        0.16687887907028198,
        -0.37325647473335266,
        -0.18477408587932587,
        0.10141024738550186,
        -0.0476965494453907,
        0.28405699133872986,
        0.0289378110319376,
        0.03417176008224487,
        -0.30495911836624146,
        -0.30486249923706055,
        0.1644623726606369,
        -0.38471320271492004,
        0.02312442660331726,
        0.2597556710243225,
        -0.367798775434494,
        0.051965177059173584,
        0.16719460487365723,
        0.09055730700492859,
        0.18875926733016968,
        0.1741955280303955,
        0.16854220628738403,
        -0.17051289975643158,
        -0.20049437880516052,
        -0.2479904294013977,
        -0.2784801125526428,
        -0.07930809259414673,
        -0.25616878271102905,
        0.10762321949005127,
        -0.007361292839050293,
        0.215300053358078,
        -0.2862139046192169,
        0.08084717392921448,
        0.1554184854030609,
        0.24836322665214539,
        0.21020790934562683,
        -0.024691909551620483,
        0.26458534598350525,
        -0.1979084014892578,
        0.21756455302238464,
        -0.0672210305929184,
        0.08319646120071411,
        -0.14041702449321747,
        -0.18341265618801117,
        0.007614383939653635,
        -0.1865321546792984,
        -0.11559510231018066,
        -0.32711684703826904,
        0.2183035910129547,
        -0.052537500858306885,
        0.06065806746482849,
        -0.19082283973693848,
        0.2650512754917145,
        -0.30733248591423035,
        0.055211931467056274,
        0.1918945610523224,
        0.15198177099227905,
        -0.133754163980484,
        -0.20189467072486877,
        -0.19382548332214355,
        0.09932604432106018,
        0.08433374762535095,
        0.2485082447528839,
        -0.20118741691112518,
        0.008839533664286137,
        0.056324221193790436,
        -0.01127995178103447,
        0.2696051299571991,
        0.030866002663969994,
        0.09770632535219193,
        -0.1723075658082962,
        0.024528078734874725,
        -0.2141040712594986,
        0.027983641251921654,
        -0.20100735127925873,
        -0.1837199181318283,
        -0.16400203108787537,
        -0.2858898341655731,
        -0.2620684802532196,
        -0.08146201819181442,
        0.07495713233947754,
        0.012072185985744,
        0.25827792286872864,
        -0.20413506031036377,
        -0.25873863697052,
        0.20345622301101685,
        0.22592930495738983,
        -0.21675486862659454,
        -0.27550581097602844,
        -0.009598077274858952,
        -0.3375151753425598,
        0.23538753390312195,
        0.07490032911300659,
        -0.04951491951942444,
        -0.23728348314762115,
        -0.3187538683414459,
        -0.24648438394069672,
        -0.30826374888420105,
        -0.2277526706457138,
        0.24441644549369812,
        -0.2673324644565582,
        -0.005526499357074499,
        -0.231721431016922,
        0.0733652263879776,
        0.16236338019371033,
        0.11210611462593079,
        0.13295701146125793,
        -0.0921347364783287,
        0.07866046577692032,
        0.2542589604854584,
        -0.07793572545051575,
        -0.32908838987350464,
        0.16656726598739624,
        0.13415426015853882,
        0.2200004756450653,
        0.20553651452064514,
        0.08027390390634537,
        -0.42388108372688293,
        -0.2086912840604782,
        0.19821682572364807,
        0.05454118922352791,
        -0.2535543143749237,
        0.1261824369430542,
        -0.21407070755958557,
        -0.16877537965774536,
        -0.21798186004161835,
        0.25468167662620544,
        -0.18058562278747559,
        -0.12648436427116394,
        -0.21936456859111786,
        0.006993746850639582,
        -0.19975429773330688,
        0.236632838845253,
        -0.1624213308095932,
        -0.20693185925483704,
        -0.32553356885910034,
        -0.17982369661331177,
        -0.24150924384593964,
        0.15491974353790283,
        -0.029116978868842125,
        -0.23720329999923706,
        -0.2634288966655731,
        -0.09568971395492554,
        0.16655436158180237,
        0.01802694797515869,
        -0.012261832132935524,
        -0.23832789063453674,
        0.22286859154701233,
        -0.27991512417793274,
        0.14329297840595245,
        -0.04242599010467529,
        -0.20977850258350372,
        -0.24247673153877258,
        -0.24365107715129852,
        -0.03689467906951904,
        -0.2945801615715027,
        -0.20194964110851288,
        -0.12692010402679443,
        -0.04936790466308594,
        -0.02230668067932129,
        -0.16691137850284576,
        0.26764848828315735,
        -0.1354348063468933,
        -0.19560444355010986,
        -0.03271481394767761,
        -0.24571824073791504,
        -0.15436865389347076,
        -0.26245516538619995,
        0.14962521195411682,
        0.15559038519859314,
        0.21891555190086365,
        -0.05282124876976013,
        -0.2576465904712677,
        0.1996079981327057,
        0.11046338081359863,
        0.12514197826385498,
        0.24845710396766663,
        -0.051053404808044434,
        0.08663856983184814,
        -0.2699921429157257,
        0.2808832824230194,
        -0.2339748740196228,
        0.14817717671394348,
        -0.21188828349113464,
        0.21993283927440643,
        0.08208443224430084,
        0.2199534922838211,
        0.12241876125335693,
        0.14088314771652222,
        -0.051317065954208374,
        -0.02009841799736023,
        -0.062146931886672974,
        -0.1930653601884842,
        0.23863688111305237,
        0.2628566324710846,
        -0.18465808033943176,
        -0.08486087620258331,
        0.21480737626552582,
        -0.021892637014389038,
        -0.3480076193809509,
        -0.13668705523014069,
        0.09148381650447845,
        -0.289626806974411,
        -0.09091205894947052,
        -0.004237523768097162,
        -0.22770792245864868,
        -0.2602229714393616,
        0.03224249184131622,
        0.15790098905563354,
        0.0988815501332283,
        0.06401002407073975,
        0.07680541276931763,
        0.21321679651737213,
        0.023573609068989754,
        0.22142678499221802,
        -0.2833903729915619,
        0.17060071229934692,
        -0.20688794553279877,
        0.04932359606027603,
        -0.2509463131427765,
        -0.09693346172571182,
        -0.038804858922958374,
        -0.046724021434783936,
        -0.010065588168799877,
        0.08872047066688538,
        0.015554851852357388,
        0.2485756129026413,
        0.1555606722831726,
        0.1563134342432022,
        -0.2260766625404358,
        0.1412668228149414,
        0.051453180611133575,
        0.08922111988067627,
        -0.1259496808052063,
        0.2751867473125458,
        -0.08422592282295227,
        -0.3228525221347809,
        -0.30594781041145325,
        -0.24157947301864624,
        -0.06703703105449677,
        0.13411030173301697,
        0.23692667484283447,
        0.29217979311943054,
        -0.18781936168670654,
        0.07304444909095764,
        -0.25079503655433655,
        0.1646673083305359,
        0.28441616892814636,
        0.07672473043203354,
        -0.016112463548779488,
        -0.17149843275547028,
        0.11451682448387146,
        -0.0014037926448509097,
        -0.048718273639678955,
        0.17125862836837769,
        0.00032610309426672757,
        -0.2681954503059387,
        -0.07163356244564056,
        0.03620011359453201,
        0.08538544178009033,
        0.11439584940671921,
        0.14130529761314392,
        -0.11245746910572052,
        0.04440683126449585,
        -0.0672302395105362,
        0.04418614134192467,
        0.05553072690963745,
        0.010446550324559212,
        -0.16788090765476227,
        -0.2654885947704315,
        0.2255319058895111,
        -0.22995012998580933,
        0.18115946650505066,
        -0.1441643089056015,
        -0.03843197226524353,
        -0.28684914112091064,
        0.019175000488758087,
        0.07073871791362762,
        -0.21703143417835236
      ]
    },
    {
      "activation": "rectified",
      "architecture": "dense",
      "bias": [
        0.4312262535095215,
        -1.3092979192733765,
        -0.3017094135284424,
        -0.5950830578804016,
        0.5032324194908142,
        -0.13829642534255981,
        -0.7812782526016235,
        -0.8778953552246094,
        0.4427196979522705,
        0.21729448437690735,
        -1.1070793867111206,
        -0.6495753526687622,
        -0.6080189347267151,
        -0.4398137032985687,
        -0.48743921518325806,
        -0.7204670906066895
      ],
      "weights": [
        0.36676761507987976,
        0.07903236150741577,
        -0.057766783982515335,
        0.20629075169563293,
        -0.5107153654098511,
        0.5233505964279175,
        -0.17928919196128845,
        -0.5264387130737305,
        0.011656912043690681,
        0.8476034998893738,
        -0.03503921255469322,
        -0.4381959140300751,
        -0.1812887340784073,
        0.20930464565753937,
        0.16553956270217896,
        0.2526988089084625,
        0.1517021656036377,
        0.02886504866182804,
        -0.09238546341657639,
        0.005489695817232132,
        -0.03142418712377548,
        0.146640807390213,
        -0.21566633880138397,
        -0.12084382772445679,
        0.0657309740781784,
        0.6355262398719788,
        -0.31637367606163025,
        -0.10903700441122055,
        0.329531192779541,
        -0.04264269396662712,
        0.04651321843266487,
        0.19675108790397644,
        0.07434237748384476,
        -0.33442312479019165,
        -0.003716684179380536,
        -0.16589650511741638,
        -0.2046794444322586,
        0.17761844396591187,
        -0.32616186141967773,
        -0.2598681151866913,
        -0.29632580280303955,
        0.1454407274723053,
        0.13597069680690765,
        -0.6502512097358704,
        -0.41995203495025635,
        -0.24692818522453308,
        0.08401557058095932,
        -0.3933349847793579,
        -0.3303006589412689,
        -2.0813164710998535,
        -1.3018690347671509,
        -0.5076031684875488,
        0.22308140993118286,
        -0.5522381067276001,
        0.08252208679914474,
        -0.13276299834251404,
        0.2573249638080597,
        -0.5789089798927307,
        -0.4399564266204834,
        -0.8060540556907654,
        -0.14389781653881073,
        -0.23999592661857605,
        -0.045403413474559784,
        -0.14571914076805115,
        -0.07165046781301498,
        1.0278699398040771,
        0.7032352089881897,
        0.2920108437538147,
        0.2871764600276947,
        0.007832027971744537,
        0.22106479108333588,
        0.044108301401138306,
        -0.19755001366138458,
        0.6937301754951477,
        -0.21517783403396606,
        -0.3244127929210663,
        -0.701968789100647,
        0.2386496365070343,
        0.14511269330978394,
        0.29528510570526123,
        -0.7784281373023987,
        0.888430118560791,
        0.09026014059782028,
        0.311726450920105,
        0.004797456786036491,
        0.26756998896598816,
        0.3797976076602936,
        -0.03746000677347183,
        -0.5132411122322083,
        0.7129679322242737,
        0.16622181236743927,
        0.15433251857757568,
        -0.3744393289089203,
        0.45377033948898315,
        0.20663470029830933,
        0.3557484745979309,
        0.0659048855304718,
        -0.3073500692844391,
        -0.03963478282094002,
        -0.27499550580978394,
        -0.33262673020362854,
        0.35760611295700073,
        0.33611494302749634,
        -0.1719575971364975,
        0.14642171561717987,
        -0.04523349553346634,
        0.07654192298650742,
        -0.23211658000946045,
        0.4525826871395111,
        -0.1031215637922287,
        0.18160571157932281,
        0.11045417934656143,
        -0.24797624349594116,
        -0.0173052866011858,
        -0.7529312968254089,
        0.4347880184650421,
        0.016890263184905052,
        0.1454566866159439,
        0.42884084582328796,
        -0.8306717276573181,
        0.047815315425395966,
        -0.44179439544677734,
        0.0997280478477478,
        0.14465643465518951,
        -0.13427647948265076,
        -0.12225566804409027,
        0.23679381608963013,
        -0.788604199886322,
        0.3529411852359772,
        0.10543739795684814,
        -0.4796140789985657,
        0.6280180215835571,
        -0.1504519283771515,
        -0.0454922579228878,
        -0.48508593440055847,
        0.1244676262140274,
        0.17308123409748077,
        0.29834479093551636,
        -0.00404902221634984,
        0.007101026363670826,
        0.018743934109807014,
        0.10604170709848404,
        0.044320110231637955,
        0.3796979784965515,
        -0.22490687668323517,
        0.706997811794281,
        0.27267321944236755,
        -0.17792348563671112,
        0.2885425388813019,
        0.20658448338508606,
        0.19791392982006073,
        0.20658065378665924,
        -0.45118701457977295,
        0.08526834100484848,
        0.10354358702898026,
        0.22539831697940826,
        -0.219314306974411,
        0.2715900242328644,
        0.06881758570671082,
        -0.095240019261837,
        0.004155855160206556,
        -0.22758795320987701,
        0.1857791692018509,
        0.15168653428554535,
        0.16245774924755096,
        -0.9769055843353271,
        0.2534064054489136,
        -0.1365622729063034,
        0.20149292051792145,
        0.02888667583465576,
        -0.06758788973093033,
        -0.08336562663316727,
        -0.03841941058635712,
        -0.1959991753101349,
        0.06527740508317947,
        -0.06371130794286728,
        -0.12299905717372894,
        0.46973830461502075,
        0.04438227415084839,
        0.1625628024339676,
        -0.8536043167114258,
        0.10273748636245728,
        -0.7030885219573975,
        0.24229533970355988,
        0.09307283908128738,
        0.3164520561695099,
        0.3781643211841583,
        0.30933892726898193,
        0.2515932619571686,
        0.5338872075080872,
        0.5954349040985107,
        -0.10237140953540802,
        0.11807097494602203,
        -0.9262187480926514,
        -1.6920257806777954,
        -0.1474734991788864,
        -0.14637328684329987,
        -0.058555636554956436,
        0.14941763877868652,
        -0.22856254875659943,
        0.2530876696109772,
        -1.040266990661621,
        -0.17500154674053192,
        -0.36787232756614685,
        0.15931318700313568,
        -0.15978848934173584,
        0.1121831014752388,
        0.15267641842365265,
        0.010070119984447956,
        -0.038885246962308884,
        -0.12054142355918884,
        -0.036733150482177734,
        -0.3323206603527069,
        -0.23517762124538422,
        -0.3008691668510437,
        -0.07533124089241028,
        0.0026818744372576475,
        -0.18724484741687775,
        -0.2751706540584564,
        -0.1301833987236023,
        -0.6632742881774902,
        -0.06316036731004715,
        0.06130571663379669,
        -0.3693546652793884,
        0.1012001559138298,
        0.1265028864145279,
        0.09370166808366776,
        0.3102724552154541,
        -0.13850586116313934,
        0.20167259871959686,
        0.5935160517692566,
        -0.29125750064849854,
        0.40275612473487854,
        -0.05982059985399246,
        0.015470748767256737,
        0.10705021768808365,
        -0.49045202136039734,
        0.23935700953006744,
        0.3307597041130066,
        -0.7837613224983215,
        0.21525044739246368,
        -0.13002228736877441,
        -0.9537357091903687,
        -0.10838495194911957,
        0.5834904313087463,
        -0.822954535484314,
        0.5152093172073364,
        -0.26801955699920654,
        0.012534289620816708,
        -0.6703484058380127,
        -0.2753869891166687,
        -0.2966092824935913,
        0.12070979177951813,
        -0.5484579801559448,
        -0.0003836885734926909,
        0.18103104829788208
      ]
    },
    {
      "activation": "rectified",
      "architecture": "dense",
      "bias": [
        -0.18770550191402435,
        -0.12193778157234192,
        -0.0976950079202652,
        -0.21105968952178955,
        -0.23862630128860474,
        -0.16648952662944794,
        -0.19814425706863403,
        -0.23608200252056122,
        -0.12237926572561264,
        -0.11426020413637161,
        -0.07005806267261505,
        -0.12355007976293564,
        0.01531894039362669,
        -0.10591111332178116,
        -0.03667565435171127,
        -0.21273009479045868,
        -0.1289370208978653,
        -0.11194542795419693,
        -0.22577229142189026,
        -0.2697977125644684,
        -0.23847663402557373,
        -0.10133291035890579,
        0.07659505307674408,
        -0.045686978846788406,
        -0.17319954931735992,
        -0.1826978176832199,
        -0.2045968472957611,
        -0.1555349975824356,
        -0.1900646984577179,
        -0.14396871626377106,
        -0.19016221165657043,
        -0.05179351568222046
      ],
      "weights": [
        0.014416176825761795,
        -0.2160469889640808,
        0.25626611709594727,
        0.06018737703561783,
        -0.1862431764602661,
        0.029423389583826065,
        0.21792785823345184,
        0.12230289727449417,
        0.09463262557983398,
        -0.06511367857456207,
        -0.06160523742437363,
        0.07720305770635605,
        -0.038477007299661636,
        -0.168021097779274,
        -0.1551232486963272,
        0.17684412002563477,
        -0.13060900568962097,
        -0.01728101447224617,
        -0.030173152685165405,
        -0.12855090200901031,
        0.16115620732307434,
        0.2948809266090393,
        0.09799221158027649,
        0.09691062569618225,
        -0.29592469334602356,
        0.18893352150917053,
        -0.12907059490680695,
        0.29252123832702637,
        -0.10049272328615189,
        0.15606313943862915,
        0.028701845556497574,
        0.1445195972919464,
        -0.1343310922384262,
        0.09232553094625473,
        0.29799357056617737,
        -0.057389818131923676,
        -0.05132005363702774,
        0.15652908384799957,
        -0.19167165458202362,
        0.11646642535924911,
        0.13141505420207977,
        -0.023386703804135323,
        -0.038013529032468796,
        0.10807670652866364,
        0.10701461136341095,
        -0.11345040798187256,
        -0.021664854139089584,
        0.17064268887043,
        -0.048759546130895615,
        -0.12945327162742615,
        -0.17054888606071472,
        0.14171554148197174,
        -0.24474675953388214,
        0.2699757218360901,
        0.1942664086818695,
        -0.15850135684013367,
        -0.03342796862125397,
        -0.1741909235715866,
        -0.12712012231349945,
        -0.04299067705869675,
        0.03675734996795654,
        0.07855421304702759,
        -0.014785591512918472,
        0.12323910742998123,
        -0.24679580330848694,
        -0.18378609418869019,
        0.2546173632144928,
        -0.06656612455844879,
        0.23469175398349762,
        0.24354830384254456,
        0.20570188760757446,
        -0.07254450023174286,
        -0.32889312505722046,
        0.1421813666820526,
        0.02550140768289566,
        -0.02239527553319931,
        -0.143731951713562,
        0.0707508772611618,
        -0.1954861730337143,
        0.18285226821899414,
        -0.09623714536428452,
        0.2140449583530426,
        0.02974812500178814,
        0.34660977125167847,
        -0.15615472197532654,
        -0.1616702377796173,
        -0.2720828950405121,
        -0.012441545724868774,
        -0.19497385621070862,
        0.16084131598472595,
        -0.20826628804206848,
        -0.07422725856304169,
        0.02402496337890625,
        -0.14944031834602356,
        0.11104491353034973,
        -0.28750619292259216,
        0.2639595866203308,
        0.13042737543582916,
        0.12516584992408752,
        0.005844412371516228,
        0.0864487960934639,
        -0.18706664443016052,
        0.1581035703420639,
        0.28668490052223206,
        -0.0877469927072525,
        -0.24434183537960052,
        -0.231539785861969,
        -0.10287754982709885,
        0.03339453786611557,
        0.09429319202899933,
        0.07908504456281662,
        -0.19216246902942657,
        -0.23375345766544342,
        0.2489587515592575,
        -0.30632615089416504,
        0.14709500968456268,
        0.28882208466529846,
        0.2832028567790985,
        0.03506001830101013,
        -0.035765502601861954,
        0.1738480180501938,
        -0.1375575065612793,
        0.30322927236557007,
        0.1685023158788681,
        0.023513903841376305,
        -0.04604245349764824,
        -0.22392168641090393,
        0.11185619235038757,
        0.09296788275241852,
        -0.0030200050678104162,
        0.2004908323287964,
        0.04606538265943527,
        -0.19910646975040436,
        -0.06563705950975418,
        0.021821262314915657,
        0.00043377195834182203,
        0.2407958060503006,
        0.08800970762968063,
        0.14750850200653076,
        -0.3510259985923767,
        0.14968273043632507,
        0.007615391630679369,
        0.1631014198064804,
        -0.2929800748825073,
        0.2051946073770523,
        0.01978106051683426,
        0.0500616729259491,
        -0.1444740891456604,
        0.22243574261665344,
        -0.24383053183555603,
        0.2881980240345001,
        0.0739101991057396,
        0.3059317171573639,
        0.013292722404003143,
        -0.26112616062164307,
        0.30440548062324524,
        -0.12957608699798584,
        0.15589989721775055,
        -0.1277761310338974,
        -0.26376333832740784,
        0.01784517802298069,
        -0.02647322230041027,
        0.18627594411373138,
        -0.4569627344608307,
        -0.035817187279462814,
        0.152240589261055,
        0.1440587192773819,
        0.12626145780086517,
        -0.07439734041690826,
        -0.1232798770070076,
        -0.1558932662010193,
        -0.017248522490262985,
        -0.0882641077041626,
        -0.025181347504258156,
        0.0696159154176712,
        0.08413862437009811,
        0.12183448672294617,
        0.053947750478982925,
        0.07032178342342377,
        0.05903608724474907,
        -0.12683337926864624,
        0.09709721803665161,
        -0.009385526180267334,
        0.023008348420262337,
        -0.21734872460365295,
        0.052838657051324844,
        0.2802389860153198,
        0.15468087792396545,
        0.1504107415676117,
        -0.0033036747481673956,
        0.05673910677433014,
        -0.08755625039339066,
        0.2510877549648285,
        0.0016432051779702306,
        -0.3530638515949249,
        0.074908547103405,
        0.004366215318441391,
        -0.05729854106903076,
        0.04067257419228554,
        -0.07717842608690262,
        -0.18068549036979675,
        0.2553832530975342,
        0.044178955256938934,
        -0.17455874383449554,
        0.03210696205496788,
        0.17195378243923187,
        0.10316070169210434,
        -0.16318929195404053,
        0.1855340301990509,
        0.2615722119808197,
        -0.3572946786880493,
        0.048922158777713776,
        -0.027141651138663292,
        -0.22371137142181396,
        -0.2505524158477783,
        0.19527480006217957,
        0.2583191394805908,
        -0.05176578834652901,
        -0.2571815550327301,
        0.16521938145160675,
        0.015952736139297485,
        -0.2684641480445862,
        -0.1561039686203003,
        -0.09297090768814087,
        -0.1477007120847702,
        -0.2374371439218521,
        0.22737444937229156,
        -0.025598593056201935,
        -0.0932464450597763,
        0.10393276810646057,
        -0.29027286171913147,
        -0.07893724739551544,
        -0.10900955647230148,
        -0.10114750266075134,
        0.08730092644691467,
        -0.28483250737190247,
        0.2024429440498352,
        0.2630085349082947,
        0.1500619500875473,
        -0.21739813685417175,
        -0.18199332058429718,
        0.26934561133384705,
        -0.09639692306518555,
        -0.2214384824037552,
        0.05575549602508545,
        -0.02374252676963806,
        0.008814454078674316,
        -0.14792200922966003,
        0.133297398686409,
        -0.1258423924446106,
        -0.1746099293231964,
        -0.2476971447467804,
        -0.2668611705303192,
        -0.008345113135874271,
        -0.27381905913352966,
        -0.24151000380516052,
        0.07466884702444077,
        -0.1470496654510498,
        0.1254803091287613,
        0.008020679466426373,
        -0.2235499620437622,
        -0.09310127049684525,
        -0.2060191035270691,
        -0.142874076962471,
        0.2120966613292694,
        0.03425012528896332,
        -0.19756285846233368,
        -0.1894318163394928,
        -0.3733381927013397,
        -0.11480246484279633,
        -0.26848745346069336,
        -0.042569659650325775,
        0.06549166142940521,
        0.1273021697998047,
        -0.11140237748622894,
        -0.030209485441446304,
        0.16590392589569092,
        0.03868357092142105,
        -0.024928927421569824,
        -0.2975541353225708,
        0.177242249250412,
        -0.3285921812057495,
        -0.04143323749303818,
        -0.20514456927776337,
        0.06321141123771667,
        -0.25760576128959656,
        -0.18583537638187408,
        -0.10333546251058578,
        0.12458622455596924,
        -0.2577723264694214,
        -0.016000505536794662,
        0.1121392697095871,
        0.29584357142448425,
        -0.271434485912323,
        -0.153509721159935,
        0.19167783856391907,
        -0.022524327039718628,
        -0.2151685506105423,
        -0.07384402304887772,
        0.2752735912799835,
        0.09641354531049728,
        0.0551379956305027,
        -0.1775183528661728,
        -0.19215433299541473,
        -0.3169303834438324,
        0.10575331002473831,
        0.07437294721603394,
        0.3550357222557068,
        -0.20687153935432434,
        -0.09738429635763168,
        -0.2800125479698181,
        0.07066719233989716,
        -0.1256595104932785,
        0.2921443581581116,
        0.105206198990345,
        -0.1711292564868927,
        0.10634376108646393,
        0.0543682686984539,
        0.1410241276025772,
        0.1832275390625,
        -0.05913792550563812,
        0.07698352634906769,
        -0.16565603017807007,
        -0.27559176087379456,
        0.007882974110543728,
        -0.22945091128349304,
        0.013167060911655426,
        -0.029728425666689873,
        -0.034278545528650284,
        0.10601053386926651,
        -0.04992946982383728,
        -0.2674577832221985,
        -0.043391916900873184,
        0.0880834236741066,
        -0.03168211877346039,
        -0.1120147556066513,
        -0.09979358315467834,
        -0.18749673664569855,
        0.15672126412391663,
        0.04378241300582886,
        -0.012503448873758316,
        0.088197723031044,
        -0.1639324426651001,
        -0.34597843885421753,
        0.15472128987312317,
        0.17698818445205688,
        0.2709352970123291,
        -0.033747222274541855,
        -0.2733863890171051,
        -0.008235844783484936,
        0.21350713074207306,
        -0.015404283069074154,
        -0.16194018721580505,
        0.23577436804771423,
        0.09694529324769974,
        -0.2089722603559494,
        -0.2033560574054718,
        0.25001057982444763,
        -0.05011489987373352,
        0.24643640220165253,
        0.15376700460910797,
        0.193777397274971,
        -0.0911051407456398,
        -0.1908586025238037,
        -0.18522027134895325,
        0.032113056629896164,
        0.06262800097465515,
        -0.17880651354789734,
        -0.6732155680656433,
        -0.13265466690063477,
        0.1853233128786087,
        -0.1175089105963707,
        0.02454940788447857,
        -0.02749047614634037,
        0.009083747863769531,
        0.13483721017837524,
        0.22385171055793762,
        -0.16768237948417664,
        -0.024212151765823364,
        0.08061349391937256,
        -0.23241077363491058,
        0.134073406457901,
        0.04153480380773544,
        0.04647887498140335,
        -0.10715275257825851,
        -0.1971234679222107,
        0.2189463973045349,
        0.2501944303512573,
        -0.07761652767658234,
        -0.02927478216588497,
        0.06873130798339844,
        0.038782935589551926,
        -0.22913412749767303,
        0.14121310412883759,
        0.33865630626678467,
        -0.10519062727689743,
        -0.23310603201389313,
        0.19939392805099487,
        0.04617566242814064,
        -0.021419139578938484,
        0.1896274834871292,
        -0.09308864921331406,
        0.4102707803249359,
        -0.36141976714134216,
        -0.024885693565011024,
        0.3424910306930542,
        0.26737210154533386,
        0.2082703411579132,
        -0.1336079090833664,
        0.23654243350028992,
        -0.10534536093473434,
        -0.08567194640636444,
        -0.21775850653648376,
        0.014435517601668835,
        -0.049924712628126144,
        -0.011369181796908379,
        -0.2394225299358368,
        -0.027718830853700638,
        0.061327069997787476,
        -0.3262760639190674,
        0.21264402568340302,
        0.10804318636655807,
        0.20494471490383148,
        -0.23130148649215698,
        -0.1749018430709839,
        0.008764375932514668,
        0.06589226424694061,
        0.2868734300136566,
        0.048403628170490265,
        -0.12785910069942474,
        -0.3433278501033783,
        -0.12515023350715637,
        -0.2699841558933258,
        -0.10876623541116714,
        -0.05404789000749588,
        0.1902327984571457,
        0.17881852388381958,
        0.2730116546154022,
        0.10239977389574051,
        -0.030037542805075645,
        0.3980839252471924,
        -0.1479174643754959,
        0.22175884246826172,
        -0.008572603575885296,
        0.24006235599517822,
        0.3413737714290619,
        0.1854242980480194,
        -0.03146323561668396,
        -0.2557182312011719,
        0.14637257158756256,
        -0.07653375715017319,
        0.2734373211860657,
        -0.13313667476177216,
        0.25568193197250366,
        0.03535076975822449,
        -0.1801791489124298,
        -0.12912039458751678,
        0.0019570589065551758,
        0.221342533826828,
        -0.156577005982399,
        -0.00748732453212142,
        -0.1696193963289261,
        -0.22826223075389862,
        0.28556880354881287,
        -0.1455756276845932,
        -0.023016246035695076,
        -0.07831987738609314,
        -0.00901736319065094,
        -0.18010298907756805,
        0.2580747902393341,
        -0.19824180006980896,
        -0.29029110074043274,
        -0.4829070568084717,
        -0.06289566308259964,
        0.2661813795566559,
        -0.006763428449630737,
        -0.07623374462127686,
        0.09762930870056152,
        -0.3013392984867096,
        -0.07674170285463333,
        0.06864399462938309,
        -0.2139841765165329,
        -0.02849850244820118,
        -0.18989521265029907,
        0.0813131108880043,
        -0.2541729211807251,
        0.2586856484413147,
        0.14839346706867218,
        0.10371938347816467,
        -0.05170978233218193,
        -0.050521370023489,
        0.1437307596206665,
        -0.08108615130186081,
        0.012017677538096905,
        -0.21799509227275848,
        -0.2574198842048645,
        -0.07212183624505997,
        0.1685160994529724,
        -0.4225974380970001,
        -0.22508478164672852,
        0.248043030500412,
        -0.23920534551143646,
        0.00399443507194519,
        0.18964046239852905,
        0.03327333927154541,
        -0.17871105670928955,
        0.07828515022993088,
        0.16881263256072998,
        0.12218992412090302,
        0.037527039647102356,
        -0.1985345333814621,
        0.09626833349466324,
        0.019865941256284714,
        0.13710430264472961,
        -0.2181643694639206,
        -0.15187619626522064,
        -0.011727159842848778,
        -0.012009863741695881,
        -0.07986219227313995,
        -0.09591838717460632,
        -0.09200572967529297,
        0.03450128436088562,
        0.0218628142029047,
        -0.1909559667110443,
        -0.03130654618144035,
        0.07984904944896698,
        0.08363919705152512,
        0.12563642859458923,
        -0.3523688316345215,
        0.04470076039433479,
        -0.13273365795612335,
        -0.10758236050605774,
        0.07012075930833817,
        -0.20664289593696594,
        0.2214752733707428,
        0.31701594591140747,
        0.16662761569023132,
        -0.13199585676193237,
        -0.20208103954792023,
        0.09780329465866089,
        0.05293704941868782,
        -0.28509998321533203,
        -0.2310665249824524,
        0.08257352560758591,
        -0.23361250758171082,
        0.014702528715133667,
        0.18503840267658234,
        -0.20128493010997772,
        -0.29050177335739136,
        0.25556865334510803,
        0.21582771837711334,
        -0.18595880270004272,
        0.11634021997451782,
        -0.1287713199853897,
        -0.036767423152923584,
        0.27848339080810547,
        -0.1525307595729828,
        -0.4273567795753479,
        -0.1266419142484665,
        -0.19747726619243622,
        -0.05826754495501518,
        0.17384833097457886,
        -0.2565281093120575,
        -0.13838407397270203,
        0.15368303656578064,
        -0.22405585646629333,
        -0.10516601800918579,
        0.22859534621238708,
        -0.02187403291463852,
        0.047154515981674194,
        0.11241810023784637,
        0.023509087041020393,
        0.18731436133384705,
        0.23620542883872986,
        -0.07578784972429276,
        -0.22713173925876617,
        -0.03320842981338501,
        -0.07886205613613129,
        -0.21414043009281158,
        -0.39711394906044006,
        0.09454174339771271,
        0.12169405817985535,
        0.0777444839477539,
        -0.21050332486629486,
        -0.0943816751241684,
        0.22487571835517883,
        -0.029096096754074097,
        0.09303918480873108,
        -0.10730805993080139,
        -0.07667182385921478,
        0.1547938734292984,
        -0.30061373114585876,
        -0.17616212368011475,
        0.11830970644950867,
        0.08067071437835693,
        0.16894149780273438,
        0.090097576379776,
        0.22640380263328552,
        0.2617242634296417,
        -0.040555864572525024,
        -0.1514279693365097,
        -0.08313557505607605,
        -0.09494100511074066,
        -0.05090323090553284,
        0.24579867720603943,
        -0.1048038899898529,
        0.18812808394432068,
        -0.2539864182472229,
        -0.20388296246528625,
        -0.2681733965873718,
        0.10733988881111145,
        0.2280215620994568,
        -0.07181662321090698,
        -0.3045473098754883,
        0.12398166954517365,
        0.27740344405174255,
        0.019803743809461594,
        0.1568537801504135,
        -0.11575870215892792,
        0.16710563004016876,
        -0.16522182524204254,
        0.25225117802619934,
        0.1593431830406189,
        0.15624788403511047,
        0.009303868748247623,
        0.28162893652915955,
        0.07537331432104111,
        0.2864595055580139,
        0.09329795837402344,
        -0.20560528337955475,
        -0.2990572154521942,
        0.010483453050255775,
        -0.17396453022956848,
        -0.2276226282119751,
        0.1220039576292038,
        -0.050825007259845734,
        -0.2918970286846161,
        -0.020299483090639114,
        -0.008465861901640892,
        -0.027502140030264854,
        0.21813669800758362,
        -0.37023240327835083,
        0.20147429406642914,
        0.12102227658033371,
        -0.2926952838897705,
        -0.15629439055919647,
        -0.24594378471374512,
        -0.025860721245408058,
        0.013752756640315056,
        0.2670488655567169,
        -0.09575184434652328,
        -0.1957225501537323,
        -0.06860092282295227,
        0.08821158856153488,
        -0.16492021083831787,
        -0.19821420311927795,
        0.06700237840414047,
        -0.14585138857364655,
        0.08566221594810486,
        0.05492576211690903,
        -0.19666939973831177,
        -0.14121608436107635,
        -0.11099556088447571,
        -0.19128550589084625,
        -0.20950350165367126,
        0.283321350812912,
        0.24249520897865295,
        -0.1705176681280136,
        -0.1625538319349289,
        0.19605964422225952,
        0.24087540805339813,
        -0.2633078396320343,
        0.20495261251926422,
        0.048807960003614426,
        0.08935794234275818,
        0.088511623442173,
        -0.11962001025676727,
        0.25014805793762207,
        -0.21941439807415009,
        -0.03163740038871765,
        -0.21596798300743103,
        -0.1335952877998352,
        -0.15184150636196136,
        0.15539027750492096,
        0.027166079729795456,
        0.10126721113920212,
        -0.29790255427360535,
        -0.08019435405731201,
        -0.26661404967308044,
        0.023767462000250816,
        0.23617398738861084,
        -0.19281795620918274,
        0.03572923317551613,
        -0.21493589878082275,
        0.14026828110218048,
        -0.09258271753787994,
        0.42491403222084045,
        -0.23749671876430511,
        -0.22010476887226105,
        -0.11757110059261322,
        -0.2463117390871048,
        0.048394814133644104,
        -0.19212982058525085,
        0.056703004986047745,
        0.11768429726362228,
        0.02453538030385971,
        0.07618986815214157,
        0.025569047778844833,
        -0.21909384429454803,
        0.2310948520898819,
        0.08238499611616135,
        -0.1165601834654808,
        0.1489025056362152,
        0.12396370619535446,
        0.21318309009075165,
        -0.17287303507328033,
        -0.0663982406258583,
        -0.5763140916824341,
        -0.6297788619995117,
        -0.15664783120155334,
        0.5311366319656372,
        -0.15010304749011993,
        0.2672809958457947,
        -0.07107917964458466,
        -0.3077438771724701,
        -0.29134654998779297,
        0.23419371247291565,
        -0.09371285140514374,
        -0.036888305097818375,
        0.05262940749526024,
        -0.050524838268756866,
        -0.39631882309913635,
        -0.09289658814668655,
        -0.2274070382118225,
        0.2636580467224121,
        -0.015508953481912613,
        0.24282921850681305,
        -0.06840819865465164,
        -0.21202439069747925,
        -0.13268639147281647,
        0.0794287696480751,
        -0.15496931970119476,
        -0.14951515197753906,
        -0.21358132362365723,
        0.05488342419266701,
        0.291986346244812,
        -0.2256195992231369,
        0.09795000404119492,
        0.11939600110054016,
        0.012808541767299175,
        0.5135228037834167,
        0.11102817207574844,
        -0.44354528188705444,
        0.14170216023921967,
        0.17439822852611542,
        -0.09262041002511978,
        0.047205016016960144,
        -0.05335570499300957,
        0.1430070698261261,
        0.044889140874147415,
        -0.04686010628938675,
        0.12623567879199982,
        -0.17910617589950562,
        0.2913529872894287,
        0.4512225389480591,
        0.09907495975494385,
        -0.0916687622666359,
        0.02416749857366085,
        -0.11571146547794342,
        -0.11960801482200623,
        0.016017859801650047,
        -0.2965724766254425,
        0.0538477897644043,
        -0.07905814051628113,
        -0.0017759501934051514,
        -0.06496897339820862,
        -0.20904414355754852,
        0.13570791482925415,
        0.17089787125587463,
        0.09632328897714615,
        -0.35767778754234314,
        0.07643812894821167,
        -0.30323541164398193,
        -0.22463709115982056,
        -0.34129178524017334,
        0.18886245787143707,
        0.1797529011964798,
        -0.20710836350917816,
        -0.17515918612480164,
        0.30153897404670715,
        -0.19082385301589966,
        -0.009623885154724121,
        0.11026933789253235,
        -0.08394515514373779,
        -0.23388442397117615,
        0.13127103447914124,
        0.11611726135015488,
        0.24284674227237701,
        -0.15630652010440826,
        -0.19426563382148743,
        -0.11994300782680511,
        -0.2440856695175171,
        0.13699185848236084,
        0.11020927876234055,
        0.26254144310951233,
        -0.2598530948162079,
        -0.03983205556869507,
        -0.11343970894813538,
        0.2012072503566742,
        -0.2617955803871155,
        -0.25777801871299744,
        -0.28021010756492615,
        -0.21920578181743622,
        0.10843319445848465,
        -0.046312689781188965,
        -0.21665969491004944,
        0.07793647795915604,
        0.255516916513443,
        -0.2822554111480713,
        -0.012994147837162018,
        0.0002740957716014236,
        0.04307618737220764,
        0.10532501339912415,
        0.19551855325698853,
        0.03230804204940796,
        -0.16351786255836487,
        -0.18715502321720123,
        -0.304438978433609,
        -0.0024412870407104492,
        -0.1321248710155487,
        -0.08574166148900986,
        -0.16246382892131805,
        -0.25606751441955566,
        -0.29063883423805237,
        -0.24470554292201996,
        -0.08398766815662384,
        -0.19453293085098267,
        -0.21565981209278107,
        -0.3042035400867462,
        -0.27176743745803833,
        0.18183879554271698,
        0.14485543966293335,
        -0.09240313619375229,
        -0.18769583106040955,
        0.12038622051477432,
        -0.09621939063072205,
        -0.07724133878946304,
        -0.03762868046760559,
        -0.09486071020364761,
        0.004922159481793642,
        0.27162134647369385,
        -0.0510542094707489,
        -0.2984434962272644,
        -0.16351889073848724,
        -0.1544438898563385,
        0.1429726779460907,
        0.16889506578445435,
        0.13844995200634003,
        -0.029868589714169502,
        0.15377500653266907,
        0.1478724628686905,
        0.20934714376926422,
        -0.13215963542461395,
        -0.12398744374513626,
        -0.06772001087665558,
        -0.01894587092101574,
        -0.053277388215065,
        -0.4578365385532379,
        -0.15051904320716858,
        -0.07142342627048492,
        0.10294468700885773,
        -0.2844890356063843,
        0.24802760779857635,
        -0.08009329438209534,
        -0.21043159067630768,
        0.1704234629869461,
        0.02791512943804264,
        -0.26293373107910156,
        -0.2805466055870056,
        -0.2866491973400116,
        -0.4649043083190918,
        -0.03918488696217537,
        0.12889546155929565,
        0.057208940386772156,
        0.20276997983455658,
        0.11810172349214554,
        0.08958051353693008,
        -0.07884383201599121,
        0.25576251745224,
        0.22213536500930786,
        -0.06256182491779327,
        0.01401343010365963,
        0.08222132921218872,
        0.14267466962337494,
        0.08516369760036469,
        0.0004914545570500195,
        -0.12150131165981293,
        -0.28668051958084106,
        0.07071869820356369,
        -0.31818732619285583,
        0.23605182766914368,
        0.12091866880655289,
        -0.05184867978096008,
        -0.1135932058095932,
        0.16138772666454315,
        0.021665839478373528,
        0.15048882365226746,
        0.2886416018009186,
        0.11775611340999603,
        0.11869391798973083,
        -0.04710235446691513,
        -0.04808571934700012,
        -0.5832331776618958,
        -0.06672453880310059,
        -0.07929609715938568,
        -0.12975740432739258,
        -0.1937001347541809,
        0.27589043974876404,
        0.18847200274467468,
        -0.1443818062543869,
        0.07803735882043839,
        0.19224099814891815,
        -0.004158519674092531,
        0.21251749992370605,
        -0.1888894885778427,
        -0.15603475272655487,
        0.07225987315177917,
        0.13452182710170746,
        -0.30969125032424927,
        -0.08379995077848434,
        -0.0367264486849308,
        -0.014917743392288685,
        0.15609651803970337,
        -0.00821224506944418,
        -0.05449829250574112,
        0.1236942857503891,
        0.26154905557632446,
        0.20470362901687622,
        -0.13755303621292114,
        0.44482994079589844,
        0.20243974030017853,
        0.15090319514274597,
        -0.3135356903076172,
        0.16145987808704376,
        0.14444732666015625,
        0.25199025869369507,
        -0.09090875834226608,
        0.23547299206256866,
        0.03143009915947914,
        0.18093760311603546,
        -0.3018571436405182,
        0.0015455827815458179,
        -0.17520128190517426,
        -0.2444545328617096,
        -0.1804971545934677,
        -0.16276851296424866,
        -0.12627185881137848,
        0.14222759008407593,
        0.17315608263015747,
        0.010997749865055084,
        -0.20009741187095642,
        -0.2757769525051117,
        0.22202035784721375,
        -0.006720555480569601,
        -0.1109497919678688,
        0.1264302283525467,
        -0.24069440364837646,
        0.13414466381072998,
        0.2746943235397339,
        0.16043370962142944,
        -0.1411466896533966,
        -0.03348589688539505,
        -0.05221879109740257,
        -0.17518384754657745,
        -0.13950616121292114,
        0.005124019458889961,
        -0.09667263180017471,
        -0.18742823600769043,
        0.1948368400335312,
        0.3616776764392853,
        -0.05631417781114578,
        0.17451943457126617,
        0.23378118872642517,
        0.07145195454359055,
        -0.03510494902729988,
        0.19257250428199768,
        -0.06475760042667389,
        0.18638259172439575,
        0.12755481898784637,
        0.30062705278396606,
        -0.028995556756854057,
        0.013289027847349644,
        -0.2620120942592621,
        -0.15712982416152954,
        0.049313921481370926,
        -0.19015048444271088,
        -0.06276517361402512,
        0.2126152664422989,
        0.12141125649213791,
        0.07452935725450516,
        0.19713227450847626,
        -0.12158816307783127,
        -0.1919182986021042,
        0.11027154326438904,
        0.04007618874311447,
        0.061558254063129425,
        -0.30129414796829224,
        0.2997610867023468,
        -0.24577008187770844,
        0.20446425676345825,
        -0.022988349199295044,
        0.23612363636493683,
        0.057466570287942886,
        -0.023086953908205032,
        -0.14959251880645752,
        0.22120194137096405,
        -0.043663498014211655,
        -0.25727972388267517,
        -0.23947472870349884,
        -0.013769254088401794,
        0.1247100681066513,
        -0.28619131445884705,
        0.03434491157531738,
        0.19167836010456085
      ]
    },
    {
      "activation": "rectified",
      "architecture": "dense",
      "bias": [
        0.10200952738523483,
        0.018764272332191467,
        -0.21711061894893646,
        -0.12454736977815628,
        -0.48172563314437866,
        0.11129051446914673,
        0.018286187201738358,
        0.0796639546751976,
        -0.2950851619243622,
        0.16658250987529755,
        -0.7805696725845337,
        -0.5420672297477722,
        -0.7047432661056519,
        -0.273162841796875,
        0.25025811791419983,
        0.16736666858196259
      ],
      "weights": [
        -0.3445188105106354,
        -0.0039848280139267445,
        0.01934671588242054,
        -1.5821292400360107,
        -1.0584335327148438,
        -0.5084134936332703,
        0.2237115055322647,
        -2.1882429122924805,
        0.1055159643292427,
        -0.1130477711558342,
        0.11967477947473526,
        -0.031693607568740845,
        -0.2305493801832199,
        0.09514233469963074,
        -3.2642176151275635,
        -0.003700475674122572,
        0.1840059459209442,
        -0.6092438101768494,
        0.22425465285778046,
        -0.9902238249778748,
        -0.30252769589424133,
        -0.17646822333335876,
        -0.11640799045562744,
        -0.10859952121973038,
        -0.42658212780952454,
        -0.3704770505428314,
        0.42192578315734863,
        -0.7075359225273132,
        -0.18932069838047028,
        -0.3639708161354065,
        -0.29823535680770874,
        0.43444767594337463,
        0.2941569685935974,
        -0.8332868218421936,
        0.1677684783935547,
        -0.5431885123252869,
        0.2272101640701294,
        -0.48602575063705444,
        -0.5261703729629517,
        0.21363945305347443,
        -0.7218314409255981,
        0.15209926664829254,
        -0.16588811576366425,
        -0.7731215357780457,
        -0.883406400680542,
        0.2931981086730957,
        0.31355634331703186,
        0.710072934627533,
        -0.0011063911952078342,
        -1.3722832202911377,
        0.3511037826538086,
        0.23244982957839966,
        -0.10608945786952972,
        -0.00567486509680748,
        -0.025711597874760628,
        0.2403894066810608,
        0.08917306363582611,
        -0.4147346019744873,
        -0.10052565485239029,
        -0.222812682390213,
        0.6396862268447876,
        0.1688591092824936,
        0.5406039953231812,
        -0.38359153270721436,
        -0.08814617246389389,
        -1.6989126205444336,
        -0.1577349454164505,
        0.17196252942085266,
        0.05674920976161957,
        -0.3212742209434509,
        0.31974634528160095,
        0.6117281317710876,
        -0.5913506746292114,
        -0.22426769137382507,
        -0.27573707699775696,
        -0.773267388343811,
        -0.16737432777881622,
        0.0418994203209877,
        0.6731247901916504,
        0.29166075587272644,
        -0.40918388962745667,
        -0.4398546516895294,
        0.013908970169723034,
        -2.236050605773926,
        0.05137830972671509,
        -0.09320783615112305,
        -0.4762212038040161,
        -0.925538182258606,
        -0.2313074767589569,
        0.1697322577238083,
        -0.19536103308200836,
        -1.8767098188400269,
        -0.34926238656044006,
        0.3327361047267914,
        -0.16534709930419922,
        0.24795441329479218,
        -0.8648276329040527,
        1.0923068523406982,
        0.1708855926990509,
        0.11043056845664978,
        -0.8109294176101685,
        -0.1307986080646515,
        0.4267890155315399,
        0.4323650002479553,
        -0.08651872724294662,
        -0.10014791786670685,
        0.12173087149858475,
        0.22807765007019043,
        -0.5665414929389954,
        0.053714100271463394,
        -0.5951605439186096,
        -0.394905686378479,
        -0.8740261793136597,
        -1.3345160484313965,
        -0.007572835311293602,
        -0.9824982285499573,
        -0.01469061616808176,
        -0.5847251415252686,
        -0.33736512064933777,
        -0.2797236442565918,
        -1.2946691513061523,
        0.2015974223613739,
        -0.32465749979019165,
        -1.6385492086410522,
        -0.14326335489749908,
        -0.04824991896748543,
        -0.3178470730781555,
        0.6828489899635315,
        0.004023307003080845,
        0.5474569201469421,
        0.004223635420203209,
        -0.6031389236450195,
        -0.6743621826171875,
        -0.33941367268562317,
        0.38991686701774597,
        -0.36774519085884094,
        0.25223487615585327,
        -1.4312074184417725,
        -0.0036416607908904552,
        -0.3165034055709839,
        0.7109609842300415,
        -0.035623323172330856,
        -1.7748085260391235,
        0.012201089411973953,
        0.07918348908424377,
        -0.9272702932357788,
        -0.3027973175048828,
        -0.06732410937547684,
        -0.011858519166707993,
        0.2549908459186554,
        -0.4206109642982483,
        0.0795927345752716,
        -0.3050849437713623,
        -0.36327385902404785,
        -0.8592914342880249,
        -1.0525424480438232,
        -0.1423330008983612,
        0.14673909544944763,
        0.25362542271614075,
        0.3289748728275299,
        -0.6077377200126648,
        0.47298747301101685,
        0.09855248779058456,
        -0.30274543166160583,
        -0.053946927189826965,
        -0.15685071051120758,
        0.20244644582271576,
        0.41282862424850464,
        -0.33573833107948303,
        -0.1440044641494751,
        0.6728788614273071,
        0.4288572669029236,
        0.23359082639217377,
        -0.6423428058624268,
        -0.47571390867233276,
        0.3373878002166748,
        -0.280672162771225,
        0.8400176763534546,
        0.22339612245559692,
        -0.20546941459178925,
        -0.3424111008644104,
        -0.012590653263032436,
        0.017038194462656975,
        0.4480917751789093,
        -0.060302987694740295,
        -0.6123053431510925,
        0.29091066122055054,
        0.35668113827705383,
        0.28956979513168335,
        -0.3491874933242798,
        -0.4883471727371216,
        -0.019226955249905586,
        -0.11680970340967178,
        0.4791289269924164,
        0.0375417098402977,
        0.158819317817688,
        -0.19247883558273315,
        -0.5182089805603027,
        0.3580259680747986,
        0.368082731962204,
        0.07522385567426682,
        0.1640206277370453,
        0.9492005705833435,
        0.010745543986558914,
        0.06692113727331161,
        0.07668378949165344,
        0.4908383786678314,
        -0.2022852897644043,
        -0.47969987988471985,
        -1.5462590456008911,
        0.0431811697781086,
        -0.48828360438346863,
        -0.2310188114643097,
        0.3516300320625305,
        -0.10430031269788742,
        0.1580514907836914,
        -2.2242136001586914,
        0.07343505322933197,
        0.481174498796463,
        -0.579515814781189,
        -0.11255128681659698,
        -0.004536046646535397,
        0.0010557157220318913,
        0.47738656401634216,
        -0.09837207198143005,
        -0.43479934334754944,
        0.025084583088755608,
        -1.1911966800689697,
        -0.26830190420150757,
        -0.5821859836578369,
        -0.029878884553909302,
        -0.4726743996143341,
        -0.33138784766197205,
        -0.2427206039428711,
        -0.22370433807373047,
        -1.0198283195495605,
        -0.043766193091869354,
        0.18361175060272217,
        -0.5443346500396729,
        0.2412610948085785,
        0.03408749774098396,
        -0.8455209136009216,
        -0.3069402873516083,
        -1.0947149991989136,
        -2.1132869720458984,
        -0.11549277603626251,
        0.3556854724884033,
        -2.31791090965271,
        -0.1292964369058609,
        -1.1556795835494995,
        0.6030692458152771,
        -1.3899023532867432,
        0.7129608392715454,
        -0.2905150055885315,
        -4.820244312286377,
        0.7091684937477112
      ]
    },
    {
      "activation": "rectified",
      "architecture": "dense",
      "bias": [
        -0.09147355705499649,
        -0.06219884008169174,
        -0.12718316912651062,
        -0.036557216197252274,
        -0.06344872713088989,
        -0.12927986681461334,
        -0.07356628030538559,
        -0.034821245819330215,
        -0.12198324501514435,
        -0.05230434983968735,
        -0.006936588790267706,
        -0.05136806517839432,
        -0.010914626531302929,
        -0.0772307887673378,
        -0.00893975980579853,
        -0.07444553077220917,
        -0.026433877646923065,
        -0.06108590587973595,
        -0.06874759495258331,
        -0.10450369864702225,
        -0.022361459210515022,
        -0.12024079263210297,
        -0.0305643267929554,
        -0.09024786204099655,
        -0.07978803664445877,
        -0.041724707931280136,
        -0.11209314316511154,
        -0.014492676593363285,
        -0.03176251798868179,
        -0.0012579670874401927,
        -0.10037221014499664,
        -0.09172976016998291
      ],
      "weights": [
        0.07273630797863007,
        0.04065602272748947,
        -0.3331359922885895,
        0.004615532699972391,
        -0.05490124598145485,
        -0.26386043429374695,
        0.12906597554683685,
        -0.11471548676490784,
        -0.10858230292797089,
        0.05167841538786888,
        0.057792454957962036,
        -0.24326306581497192,
        -0.15291880071163177,
        -0.008472061716020107,
        0.08830596506595612,
        0.06680126488208771,
        -0.23985505104064941,
        0.11545449495315552,
        -0.08401370793581009,
        -0.07810978591442108,
        -0.023216288536787033,
        -0.34232422709465027,
        0.05638701096177101,
        0.10891644656658173,
        0.18720149993896484,
        -0.2212849110364914,
        0.20033390820026398,
        0.07583972066640854,
        -0.004323065280914307,
        -0.0026731090620160103,
        -0.12561030685901642,
        -0.25313395261764526,
        0.025660991668701172,
        -0.22548756003379822,
        -0.02480754256248474,
        -0.2655891180038452,
        0.059031084179878235,
        -0.2553960382938385,
        -0.35741177201271057,
        -0.0036056339740753174,
        0.24588271975517273,
        -0.17295177280902863,
        -0.13218024373054504,
        -0.08625927567481995,
        0.06717750430107117,
        -0.19716650247573853,
        -0.27989575266838074,
        0.1137624979019165,
        0.13476289808750153,
        -0.24869397282600403,
        -0.19641020894050598,
        -0.006954550743103027,
        -0.1621318906545639,
        -0.10665328800678253,
        -0.15797388553619385,
        -0.27196091413497925,
        -0.009224623441696167,
        -0.24886135756969452,
        0.11577126383781433,
        0.23346349596977234,
        -0.1929686814546585,
        -0.07728094607591629,
        -0.3063022196292877,
        -0.05602508783340454,
        -0.009815091267228127,
        0.023487230762839317,
        0.261393278837204,
        -0.3288770318031311,
        -0.04993818700313568,
        -0.0907716378569603,
        -0.33524090051651,
        0.12240839004516602,
        -0.15121565759181976,
        -0.08042429387569427,
        0.026929398998618126,
        -0.24933269619941711,
        -0.0735049843788147,
        0.18733783066272736,
        -0.2575346529483795,
        0.11349543929100037,
        0.24324224889278412,
        0.12790603935718536,
        0.17419201135635376,
        -0.01515084970742464,
        -0.33319246768951416,
        0.05497034266591072,
        0.046858690679073334,
        -0.05424143373966217,
        -0.2596057057380676,
        0.18337686359882355,
        0.0635921061038971,
        -0.3246937096118927,
        0.28267332911491394,
        -0.161274254322052,
        -0.19227859377861023,
        0.12705980241298676,
        0.08015371114015579,
        0.04428190737962723,
        0.07468656450510025,
        0.10106764733791351,
        0.10441576689481735,
        0.14512811601161957,
        0.013025465421378613,
        0.020131617784500122,
        0.17551901936531067,
        -0.27884548902511597,
        -0.2467968761920929,
        -0.10602210462093353,
        0.01651895046234131,
        0.22765710949897766,
        0.11310748755931854,
        -0.04852782562375069,
        -0.07005191594362259,
        0.02796345204114914,
        0.15503454208374023,
        0.11923015117645264,
        0.030867470428347588,
        0.26477953791618347,
        -0.48527273535728455,
        0.1827501505613327,
        0.17622555792331696,
        0.07086098939180374,
        0.3097887337207794,
        0.19477100670337677,
        0.24987073242664337,
        -0.10537401586771011,
        -0.22151687741279602,
        -0.11257842928171158,
        -0.13462693989276886,
        -0.2007935494184494,
        0.04920679330825806,
        -0.12444627285003662,
        -0.26779142022132874,
        -0.03603130578994751,
        0.01412053033709526,
        -0.11995038390159607,
        -0.17985817790031433,
        -0.23305141925811768,
        -0.24817077815532684,
        -0.09616288542747498,
        -0.1421305537223816,
